{"layer_0_weight": [[0.5278301239013672, 0.30455493927001953, -0.10423256456851959, 0.3079155385494232, 0.01503145694732666, 0.1786702573299408], [-0.0588885173201561, 0.44168820977211, -0.062345683574676514, -0.38762617111206055, -0.3864820599555969, -0.15537871420383453], [0.32558029890060425, 0.1558612436056137, 0.040958452969789505, 0.4404415786266327, 0.007365630939602852, 0.4628702402114868], [0.053450025618076324, 0.3685404658317566, -0.26219481229782104, 0.47716256976127625, -0.1705709844827652, -0.12902309000492096], [-0.02766205184161663, -0.40048614144325256, -0.15657903254032135, 0.15881384909152985, 0.191745787858963, 0.19321972131729126], [0.12330687046051025, 0.17452123761177063, 0.13845399022102356, -0.21671634912490845, -0.2983485460281372, 0.3859506845474243], [0.36477944254875183, -0.2570537030696869, -0.008048690855503082, 0.08449533581733704, 0.05043564364314079, 0.5489133596420288], [-0.2545170187950134, -0.012063386850059032, -0.1880170702934265, 0.24960258603096008, -0.06499340385198593, 0.14813868701457977], [-0.1889372617006302, 0.39096030592918396, 0.33167287707328796, 0.008147351443767548, -0.04640850052237511, -0.25203365087509155], [-0.6547611951828003, -0.7248049378395081, -0.3534703850746155, -1.2625449895858765, -1.0848205089569092, -0.3613109886646271], [-0.4112154245376587, -0.1509798914194107, -0.11875408887863159, 0.010072668083012104, 0.05872563272714615, -0.22256943583488464], [0.1475827395915985, 0.29405447840690613, 0.12256262451410294, 0.16018158197402954, 0.25293251872062683, 0.18096572160720825], [-0.277978777885437, -0.3021104335784912, -0.13859930634498596, -0.08708739280700684, 0.10441505163908005, -0.09026520699262619], [-0.16301921010017395, 0.0403432659804821, -0.3896471858024597, -0.3864932954311371, -0.5270970463752747, -0.524915337562561], [-0.16109400987625122, -0.2723834812641144, -0.14928242564201355, 0.06418441981077194, 0.049036189913749695, 0.28030312061309814], [-0.09890299290418625, 0.2500416338443756, -0.1728951632976532, 0.4433911144733429, 0.34246826171875, 0.17169952392578125], [-0.08343319594860077, -0.24621617794036865, 0.42951127886772156, 0.27175161242485046, 0.1851528137922287, 0.21247461438179016], [-0.0868515744805336, 0.20047667622566223, 0.10841819643974304, -0.36207908391952515, 0.12950792908668518, -0.49498870968818665], [0.08787518739700317, 0.23808620870113373, 0.18613168597221375, -0.2247479110956192, 0.2322312891483307, -0.1994955688714981], [0.10654360055923462, 0.1996212601661682, 0.2739654779434204, 0.5264325737953186, -0.13248290121555328, 0.6023127436637878], [-0.24511267244815826, -0.27897170186042786, 0.010574281215667725, 0.32907408475875854, 0.24964535236358643, 0.3436225354671478], [-0.44104892015457153, -0.006861844565719366, -0.45472803711891174, 0.11461081355810165, -0.12216024100780487, 0.27715975046157837], [0.1846003234386444, 0.37673982977867126, 0.09836568683385849, 0.1970895379781723, 0.05742230266332626, -0.12806814908981323], [0.11007704585790634, 0.10667137801647186, -0.05597725883126259, 0.1387801468372345, -0.14316490292549133, -0.12653368711471558], [-0.21814320981502533, -0.36500388383865356, 0.07161160558462143, -0.45031261444091797, -0.8065195083618164, -0.46617501974105835], [0.5654522180557251, -0.27045735716819763, -0.07236243784427643, 0.19640618562698364, 0.14454075694084167, 0.4778359830379486], [-0.14591380953788757, -0.15984341502189636, 0.39808809757232666, -0.23920239508152008, -0.27988049387931824, 0.2640267312526703], [0.29878756403923035, 0.27482539415359497, 0.17277483642101288, 0.47128191590309143, 0.025733834132552147, 0.3854876458644867], [0.31587275862693787, -8.764064114075154e-05, -0.20707131922245026, 0.30394744873046875, 0.1244199201464653, 0.3338901400566101], [0.33390188217163086, -0.2878585755825043, -0.013402500189840794, -0.14441539347171783, -0.2996775507926941, -0.16171738505363464], [0.025799255818128586, -0.30248790979385376, -0.1550142616033554, -0.13047026097774506, -0.4632595181465149, -0.117049440741539], [-0.16634072363376617, 0.2535000741481781, 0.0485173761844635, 0.3019672930240631, 0.039227910339832306, 0.38907915353775024], [0.13749641180038452, 0.3032398819923401, 0.0050810277462005615, -0.14483079314231873, 0.06069279834628105, 0.28675755858421326], [0.016325147822499275, -0.031830888241529465, 0.1368834525346756, -0.2949955463409424, -0.15208137035369873, 0.13124002516269684], [-0.09339156746864319, 0.3964139521121979, -0.18399018049240112, -0.04407282546162605, -0.37695449590682983, -0.0075035253539681435], [-0.3752015233039856, -0.0503133125603199, -0.5673598647117615, -0.21606987714767456, -0.5497052669525146, -0.017859145998954773], [0.1227637380361557, -0.2169492244720459, -0.20217637717723846, -0.5705232620239258, 0.10106732696294785, 0.0035254177637398243], [-0.07488603889942169, 0.14730559289455414, -0.3157081604003906, 0.21999061107635498, -0.27284491062164307, 0.11295516043901443], [-0.5593450665473938, -0.24692103266716003, 0.07079241424798965, -0.7575395107269287, 0.09540665149688721, -0.47857901453971863], [-0.4901929497718811, -0.3977667987346649, 0.3291035294532776, -0.5577865839004517, 0.0008027494186535478, -0.43185415863990784], [-0.20555177330970764, 0.23097515106201172, -0.44261661171913147, -0.5064151287078857, -0.6039851307868958, -0.4973272681236267], [-0.00480041466653347, 0.37970462441444397, 0.04195055738091469, -0.24626991152763367, -0.1035105511546135, -0.012024397030472755], [-0.39474979043006897, -0.024703649803996086, -0.6916162967681885, -0.2719421684741974, -0.11947522312402725, 0.14809083938598633], [-0.06112409383058548, 0.2832794785499573, -0.39346951246261597, -0.46330270171165466, -0.40275904536247253, -0.058569181710481644], [-0.2997475266456604, -0.06832236796617508, 0.26784804463386536, -0.1805073618888855, 0.13100022077560425, -0.0708509087562561], [-0.5287761092185974, -0.005154655780643225, -0.35512176156044006, -0.5735258460044861, -0.5868782997131348, 0.0011000040685757995], [0.2431202381849289, 0.2738412320613861, 0.21812394261360168, -0.25513961911201477, -0.35110947489738464, -0.008436617441475391], [0.29807722568511963, -0.1058489978313446, 0.13156653940677643, -0.10779255628585815, 0.22773709893226624, -0.2666684091091156], [0.031151307746767998, 0.382951945066452, -0.0468427948653698, 0.024675628170371056, -0.05192434415221214, -0.030078409239649773], [0.10976448655128479, 0.43401476740837097, -0.08891889452934265, -0.2076953798532486, -0.25894293189048767, 0.24879328906536102], [0.09825997054576874, -4.375162461656146e-05, 0.32437488436698914, -0.25317618250846863, -0.3318101167678833, 0.18647906184196472], [0.07621268928050995, 0.06612759083509445, -0.30988985300064087, 0.2830687165260315, -0.07835041731595993, 0.28295034170150757], [-0.08016897737979889, -0.1335585117340088, -0.23067423701286316, 0.07949689775705338, -0.06416287273168564, 0.46928778290748596], [0.16442640125751495, -0.06370784342288971, -0.1616038978099823, 0.4145999550819397, -0.11572985351085663, -0.3176614046096802], [0.11082132160663605, 0.14899961650371552, 0.31932729482650757, -0.308709979057312, -0.21769744157791138, 0.2669926881790161], [0.34332653880119324, 0.3105134069919586, 0.10996963828802109, 0.012541386298835278, -0.3129671514034271, -0.008112105540931225], [0.21233300864696503, 0.1995084583759308, -0.46411874890327454, -0.27148061990737915, 0.2692747116088867, -0.05862381309270859], [-0.5822005271911621, 0.21331612765789032, -0.43877798318862915, -0.1910405158996582, 0.18489614129066467, -0.42291104793548584], [0.02561228536069393, 0.057210713624954224, 0.1973954141139984, -0.17161110043525696, 0.2641744315624237, -0.1882779449224472], [-0.06382927298545837, -0.30859342217445374, 0.3264509439468384, 0.17846912145614624, 0.3399285674095154, 0.23638272285461426], [-0.5058286190032959, 0.1566976010799408, -0.23214159905910492, -0.303110271692276, 0.05190843343734741, -0.6123704314231873], [-0.5068088173866272, 0.3689977824687958, 0.1350916177034378, -0.5511552095413208, -0.044612593948841095, -0.03541587293148041], [-0.3584771752357483, -0.2510334849357605, -0.09651082754135132, -0.2558102011680603, -0.5337386727333069, 0.09626951813697815], [0.14538593590259552, 0.6274842023849487, 0.01105175819247961, -0.32884374260902405, -0.21949265897274017, 0.4359825849533081]], "layer_0_bias": [0.0030690524727106094, 0.36729034781455994, 0.13299602270126343, 0.021624986082315445, 0.28606560826301575, -0.11463797092437744, 0.055044353008270264, 0.4699161648750305, 0.42589136958122253, 0.5287597179412842, -0.3531411588191986, -0.007854658178985119, -0.20606377720832825, 0.2699089050292969, -0.34337806701660156, 0.2832312285900116, 0.014712337404489517, -0.15167784690856934, -0.4540117383003235, 0.40224069356918335, 0.27511245012283325, 0.2682218849658966, 0.41835108399391174, -0.1792619377374649, 0.2551778554916382, -0.14009125530719757, -0.0883697122335434, -0.014306973665952682, 0.5013849139213562, -0.3548148572444916, 0.449767529964447, 0.08699577301740646, -0.36711007356643677, -0.31650879979133606, -0.28248998522758484, 0.24058176577091217, 0.2831726670265198, -0.17545603215694427, 0.28583285212516785, 0.16994231939315796, 0.2301962673664093, -0.2930377721786499, 0.1804703325033188, 0.512459397315979, -0.20245543122291565, 0.26315543055534363, -0.27826976776123047, 0.22197718918323517, 0.12492842227220535, 0.48539698123931885, -0.3519037067890167, 0.34945544600486755, -0.35324740409851074, 0.32821983098983765, -0.3376593291759491, -0.22437910735607147, 0.39427292346954346, 0.3142584264278412, 0.3736022412776947, 0.017040608450770378, 0.4364073872566223, 0.32244086265563965, 0.5289188027381897, 0.2621878683567047], "layer_2_weight": [[0.15717193484306335, -0.14215770363807678, 0.15585297346115112, -0.07652057707309723, 0.17186912894248962, 0.11263470351696014, 0.08073364198207855, 0.025224950164556503, -0.0820947140455246, -0.832617998123169, 0.03211802989244461, 0.1720472276210785, 0.15694859623908997, 0.018757179379463196, 0.2040841281414032, 0.007789043243974447, 0.04532076045870781, 0.07082062214612961, 0.004454071633517742, 0.2145521193742752, 0.02015720307826996, 0.1503833383321762, 0.2069752961397171, 0.06356304883956909, -0.21442434191703796, 0.15480388700962067, -0.10791151225566864, 0.03594007343053818, 0.25348472595214844, -0.11167900264263153, 0.028749512508511543, 0.0848269909620285, 0.1728464961051941, -0.07237789034843445, 0.03357255458831787, -0.10136871039867401, 0.021722864359617233, -0.03895178437232971, -0.12157978117465973, -0.2203744649887085, -0.1850733458995819, 0.06304459273815155, 0.14821217954158783, -0.19184626638889313, 0.007727532181888819, -0.06458340585231781, 0.027114540338516235, 0.037739843130111694, -0.020876245573163033, 0.14277459681034088, 0.06516674160957336, 0.009922128170728683, 0.1428033709526062, 0.12075016647577286, 0.03330838307738304, 0.07225039601325989, 0.00575211038812995, -0.0767476037144661, 0.1176273450255394, 0.09304170310497284, -0.045392148196697235, 0.06278064101934433, 0.06686272472143173, 0.06874064356088638], [-0.12568923830986023, 0.07457643002271652, -0.1063595786690712, 0.05519268289208412, -0.004952109884470701, -0.0689685195684433, -0.05465182662010193, 0.2868860363960266, 0.05477270483970642, 0.7248082756996155, 0.14780309796333313, -0.04112426936626434, -0.06785330921411514, 0.2140093445777893, 0.005989942234009504, 0.00903282780200243, -0.15425273776054382, 0.10292413830757141, -0.0037303443532437086, 0.08975867927074432, 0.14302058517932892, 0.08112063258886337, 0.1602572649717331, 0.06871291995048523, 0.3117533326148987, -0.018162934109568596, -0.05709938704967499, -0.18210498988628387, 0.17692002654075623, 0.06688515841960907, 0.23077988624572754, -0.056513622403144836, -0.04823974147439003, -0.028170287609100342, 0.021978110074996948, 0.1990707516670227, 0.09056353569030762, -0.08988717198371887, 0.08410999923944473, 0.2816775143146515, 0.15944665670394897, 0.1002875566482544, 0.24812829494476318, 0.18693484365940094, -0.00011633771646302193, 0.3796079456806183, -0.02739471197128296, -0.01778881438076496, 0.1510043889284134, 0.09145896136760712, 0.017286643385887146, 0.10016953945159912, -0.13087986409664154, 0.10075272619724274, -0.135447159409523, -0.09629234671592712, 0.19918981194496155, 0.19077377021312714, 0.16733643412590027, -0.06201890856027603, 0.18128350377082825, 0.21247926354408264, 0.1640840470790863, 0.29567965865135193], [0.10548051446676254, -0.03596050664782524, 0.12635913491249084, -0.040872249752283096, -0.001186903566122055, -0.06503607332706451, 0.23479239642620087, 0.057188477367162704, 0.02649516798555851, -0.43128299713134766, 0.007719467394053936, 0.0952690839767456, 0.07155989855527878, -0.11195740103721619, 0.2308717519044876, 0.06253243237733841, 0.06756264716386795, 0.05580654367804527, 0.0284529160708189, 0.1415136307477951, -0.06394949555397034, 0.10716228187084198, -0.040546808391809464, 0.11390513181686401, -0.08125407993793488, 0.19115617871284485, 0.03532235324382782, 0.16837458312511444, 0.16620013117790222, -0.014903262257575989, 0.014337069354951382, 0.005328637082129717, 0.0800386592745781, -0.06167393922805786, -0.09313257038593292, -0.10761262476444244, 0.02667785808444023, 0.06867295503616333, -0.015798209235072136, -0.05484111234545708, -0.31424179673194885, -0.10740569233894348, 0.10205981135368347, -0.08689728379249573, 0.06576824933290482, -0.1038438156247139, 0.006548777222633362, 0.027022236958146095, -0.04466937482357025, 0.24139995872974396, -0.07056441903114319, 0.14642658829689026, 0.007221512962132692, 0.1799500286579132, 0.04483668878674507, -0.0037762820720672607, 0.08968939632177353, -0.07335056364536285, 0.04961946979165077, 0.14234666526317596, -0.018133800476789474, -0.010564072988927364, -0.007214290089905262, 0.08191673457622528], [0.02460305392742157, -0.1041267067193985, -0.04694125056266785, 0.09804616868495941, -0.10253097116947174, 0.002667069435119629, 0.07098054885864258, -0.01987728476524353, -0.06617613136768341, -0.1120067834854126, -0.05966690182685852, 0.056267887353897095, 0.049481749534606934, -0.0742536336183548, -0.08737845718860626, -0.08761477470397949, 0.006120920181274414, -0.00909307599067688, -0.07593950629234314, -0.016463056206703186, 0.035392165184020996, -0.10378438234329224, 0.008032336831092834, 0.012565702199935913, -0.10927298665046692, 0.10010558366775513, -0.03450547158718109, -0.04213349521160126, -0.11525280773639679, 0.02588719129562378, -0.12344449758529663, 0.07619079947471619, -0.07637658715248108, 0.10865122079849243, 0.12161259353160858, -0.04647393524646759, -0.03858277201652527, 0.122698113322258, 0.1176009476184845, -0.07816696166992188, -0.045388951897621155, 0.027149751782417297, 0.10344478487968445, -0.10151813924312592, 0.11363588273525238, -0.12487292289733887, -0.008097544312477112, -0.06039069592952728, 0.052089348435401917, 0.06413047015666962, 0.009677901864051819, 0.02925744652748108, -0.09407156705856323, 0.02185569703578949, 0.005319252610206604, 0.027743056416511536, 0.01139599084854126, -0.07672165334224701, 0.08040165901184082, -0.02384740114212036, -0.029141008853912354, -0.030498310923576355, 0.1244407445192337, 0.019280359148979187], [-0.028697792440652847, 0.047449637204408646, 0.12544411420822144, 0.16951197385787964, 0.16175693273544312, -0.0068770647048950195, -0.1129847839474678, 0.18131019175052643, 0.2430526316165924, 0.8895812034606934, -0.07068793475627899, 0.09169302135705948, 0.07502193748950958, 0.2858293056488037, 0.09979107230901718, -0.03445759415626526, -0.004880598746240139, -0.02615184709429741, -0.05308515951037407, 0.14059564471244812, 0.011812667362391949, 0.14676684141159058, 0.22786268591880798, -0.04667361080646515, 0.39542943239212036, 0.0016289720078930259, 0.11442792415618896, -0.09857594966888428, 0.08296508342027664, 0.12334279716014862, 0.2658461928367615, 0.12137164920568466, -0.0580473467707634, 0.09422804415225983, -0.1091076135635376, 0.2405802309513092, 0.17346881330013275, -0.06600898504257202, 0.16977685689926147, 0.3757581114768982, 0.3935112953186035, 0.016219452023506165, 0.21416524052619934, 0.22500258684158325, 0.01603928953409195, 0.2564871311187744, -0.11025647819042206, 0.19753369688987732, 0.01910567283630371, 0.2128470540046692, 0.08409138023853302, 0.24940073490142822, -2.403820276260376, 0.16641712188720703, 0.01211671531200409, 0.11443877220153809, 0.16099923849105835, 0.060975946485996246, 0.07775755971670151, -0.10185975581407547, 0.17973153293132782, 0.07311602681875229, 0.19859609007835388, 0.18402406573295593], [0.1768147051334381, -0.029725218191742897, 0.14964258670806885, 0.027785740792751312, 0.18056370317935944, 0.10883890092372894, 0.05835305154323578, -0.038852397352457047, -0.13133424520492554, -0.1882731020450592, -0.03556554391980171, 0.10890038311481476, 0.05814051255583763, -0.037986256182193756, 0.044498082250356674, 0.17543072998523712, 0.06043221428990364, -0.15164706110954285, -0.010137712582945824, 0.21301300823688507, 0.09338972717523575, 0.12364812940359116, 0.08814536780118942, -0.06902214884757996, -0.1108194962143898, 0.1771503984928131, -0.1246483325958252, 0.04163264110684395, 0.05001404136419296, 0.06279011070728302, -0.06125916913151741, 0.14759249985218048, -0.1102837473154068, -0.10376274585723877, -0.01869310438632965, 0.020614342764019966, -0.12157699465751648, -0.050455719232559204, 0.010149594396352768, -0.19041219353675842, -0.05520147085189819, 0.0403166264295578, 0.07827726006507874, -0.11170301586389542, -0.05219675600528717, -0.06489008665084839, 0.06457364559173584, -0.1252795159816742, 0.013352304697036743, 0.12516850233078003, -0.105960413813591, 0.06315562129020691, 0.15769606828689575, 0.079036183655262, -0.036683328449726105, -0.04081515967845917, 0.07461145520210266, -0.15618202090263367, -0.07264894992113113, 0.13599886000156403, -0.05543971061706543, -0.13328081369400024, -0.1435846984386444, -0.06130575016140938], [0.02241605520248413, -0.1769533008337021, -0.012368548661470413, -0.13326865434646606, -0.012118712067604065, -0.10759666562080383, -0.18070651590824127, -0.07001650333404541, -0.08651156723499298, 0.10852599143981934, -0.0799521654844284, -0.050221290439367294, 0.02875266596674919, 0.11978982388973236, -0.02070215344429016, -0.0029511675238609314, -0.18418002128601074, 0.045034948736429214, 0.14604195952415466, -0.1439078450202942, -0.1272445023059845, -0.0454191118478775, -0.07782290875911713, -0.12447743117809296, -0.010484263300895691, -0.039859890937805176, -0.08950383961200714, -0.14941442012786865, 2.2131412151793484e-06, 0.06815235316753387, -0.05410148203372955, -0.21064913272857666, 0.0167913269251585, 0.11961251497268677, 0.04473768174648285, -0.052557334303855896, 0.09066211432218552, 0.09193600714206696, -0.01021027471870184, 0.08829233050346375, 0.02193814516067505, -0.1006234884262085, -0.06861342489719391, -0.046104609966278076, 0.06445430964231491, -0.041379839181900024, -0.066364586353302, 0.09213825315237045, -0.12114502489566803, -0.03591291233897209, 0.10576455295085907, -0.1173328384757042, 0.017485029995441437, -0.010849847458302975, 0.012813457287847996, 0.11244124174118042, -0.06965067982673645, -0.005573829170316458, 0.05407453328371048, -0.004853267688304186, -0.0535740964114666, -0.1595459133386612, -0.013716965913772583, -0.022773757576942444], [0.07711917161941528, 0.08822116255760193, 0.17784401774406433, 0.04230814799666405, 0.13062496483325958, 0.03445334732532501, 0.08583251386880875, -0.04679056257009506, 0.10661599040031433, -0.6397312879562378, -0.09441245347261429, 0.08686010539531708, 0.03570970892906189, 0.02286575362086296, 0.05092683807015419, 0.059284526854753494, -0.003981103654950857, -0.10334897041320801, -0.03720155730843544, 0.25312820076942444, 0.18800748884677887, 0.021039653569459915, 0.18669307231903076, 0.030152633786201477, -0.09280537813901901, 0.1945347636938095, -0.10427024960517883, 0.0947340726852417, 0.056700702756643295, 0.05137397348880768, 0.027844103053212166, 0.09971479326486588, 0.06812047958374023, -0.10921281576156616, 0.02641718089580536, -0.10878394544124603, 0.05706668272614479, -0.10832513868808746, -0.07969675958156586, -0.048336680978536606, -0.2631760537624359, 0.06792488694190979, 0.03928488865494728, 0.07178394496440887, 0.09832970052957535, -0.35613876581192017, 0.05414251983165741, -0.08165520429611206, 0.007569943089038134, 0.01755356229841709, -0.11575067043304443, 0.21566784381866455, 0.1162979006767273, 0.1727239340543747, 0.08782189339399338, 0.026272058486938477, -0.05970340594649315, -0.048728249967098236, 0.08101066946983337, 0.0851428210735321, -0.11590832471847534, -0.018023453652858734, -0.10154694318771362, -0.0700841024518013], [-0.0035743266344070435, -0.11814728379249573, -0.12431073188781738, -0.07106412947177887, -0.0414421409368515, -0.09992857277393341, -0.11748534440994263, -0.10734516382217407, 0.10301481187343597, 0.07192818820476532, -0.09355956315994263, -0.09916648268699646, 0.060298606753349304, 0.07953368127346039, 0.059482499957084656, -0.06191103160381317, -0.0075709521770477295, 0.04912900924682617, -0.06074635684490204, 0.12306171655654907, -0.02965635061264038, 0.07459229230880737, 0.03130628168582916, 0.055369287729263306, 0.10638090968132019, -0.045826226472854614, 0.09201416373252869, 0.12397095561027527, -0.0716383159160614, -0.02384510636329651, -0.10845446586608887, -0.004747986793518066, -0.0073937177658081055, 0.03465740382671356, 0.11684052646160126, -0.08861643075942993, -0.05563405156135559, 0.12434287369251251, 0.09060107171535492, -0.055416762828826904, -0.015852734446525574, 0.010913252830505371, 0.11317984759807587, -0.09553536772727966, -0.11405201256275177, 0.004930019378662109, -0.07749755680561066, -0.029733017086982727, -0.11458493769168854, 0.022426724433898926, 0.031483083963394165, -0.08801771700382233, 0.09833630919456482, -0.03765726089477539, 0.012150809168815613, -0.01701328158378601, -0.016130492091178894, -0.010361477732658386, -0.11417368054389954, -0.014787480235099792, 0.09095975756645203, 0.05827191472053528, -0.1082162857055664, 0.06325484812259674], [0.2249222844839096, 0.05466707423329353, 0.22020795941352844, 0.06465160846710205, 0.07481493800878525, 0.11830952763557434, 0.103182852268219, -0.005282491445541382, 0.07958147674798965, -0.3615766763687134, -0.15501193702220917, 0.04462118074297905, -0.05590026453137398, -0.09214503318071365, 0.06536608189344406, 0.1808071732521057, -0.007636226713657379, -0.11754172295331955, 0.07840099930763245, 0.20141468942165375, 0.1501215100288391, 0.18645338714122772, 0.11749940365552902, 0.07314041256904602, -0.060170117765665054, 0.18913760781288147, -0.001395002007484436, 0.16207221150398254, 0.14494092762470245, -0.12144267559051514, -0.10792745649814606, 0.1857994645833969, 0.007575858384370804, -0.005941376090049744, 0.03449904918670654, 0.007736267056316137, -0.03051028586924076, 0.028533026576042175, -0.051108554005622864, -0.06427986174821854, -0.171511709690094, -0.010700926184654236, -0.01935655064880848, -0.08369119465351105, 0.012278658337891102, -0.21887986361980438, 0.007968306541442871, -0.09233104437589645, 0.08824609965085983, -0.028476642444729805, -0.08930198848247528, 0.03782730549573898, 0.03771500661969185, 0.03290354833006859, -0.030698560178279877, 0.10784395039081573, -0.009378424845635891, 0.08791331201791763, 0.12555940449237823, -0.03913263604044914, -0.16762474179267883, -0.017217399552464485, -0.15052343904972076, 0.0957360565662384], [0.05654588341712952, -0.06620800495147705, 0.004384979605674744, -0.12422643601894379, 0.051851317286491394, 0.04307447373867035, -0.10197854042053223, -0.0951431393623352, 0.05706913769245148, 0.07971101999282837, -0.07616394758224487, -0.09367308020591736, 0.0754823386669159, -0.10463802516460419, -0.050370171666145325, 0.07459340989589691, -0.08572068810462952, 0.11844690144062042, -0.0749620795249939, 0.020422041416168213, -0.07418906688690186, 0.052656278014183044, -0.014874935150146484, -0.10331840813159943, 0.11953288316726685, -0.06715403497219086, 0.036578938364982605, 0.01454731822013855, -0.09754814207553864, -0.0022031068801879883, -0.02191735804080963, -0.0010955780744552612, 0.10371153056621552, -0.013098254799842834, -0.01428861916065216, 0.017434120178222656, 0.060691505670547485, 0.02025867998600006, -0.049048855900764465, -0.08562253415584564, -0.029060274362564087, 0.08704395592212677, 0.013697922229766846, 0.013416647911071777, 0.021987050771713257, -0.11024001240730286, 0.10648718476295471, 0.007708638906478882, 0.09299673140048981, -0.0018478631973266602, 0.10590967535972595, -0.11824283003807068, -0.0589558482170105, 0.09882111847400665, -0.09785144031047821, 0.08038078248500824, 0.02105054259300232, -0.09085339307785034, 0.011078208684921265, 0.0680677741765976, -0.08652353286743164, -0.030745327472686768, 0.010559231042861938, 0.04728199541568756], [-0.03056306019425392, 0.07677192986011505, 0.22299866378307343, 0.1034231185913086, -0.0013550636358559132, 0.04673859477043152, 0.06431196630001068, 0.0810663029551506, 0.07429167628288269, -1.3013088703155518, 0.011833762750029564, 0.13623644411563873, -0.012479445897042751, -0.03541719168424606, 0.1268453299999237, 0.10806934535503387, 0.14747437834739685, -0.14505033195018768, 0.028603026643395424, 0.15223096311092377, 0.18623872101306915, 0.05240238457918167, 0.058582939207553864, -0.013055041432380676, -0.4788234829902649, 0.05733179673552513, 0.07358923554420471, 0.0363839790225029, 0.23055894672870636, -0.04314456880092621, 0.31470561027526855, 0.041093677282333374, 0.09439286589622498, -0.10083067417144775, 0.09908093512058258, 0.041028738021850586, -0.05703312158584595, -0.09159265458583832, -0.0038261753506958485, -0.07630730420351028, -0.4862310588359833, 0.12498003244400024, 0.2232556790113449, -0.1055184006690979, 0.1331537961959839, -0.469801664352417, 0.05180582404136658, -0.05950755998492241, 0.15852320194244385, 0.3257501423358917, 0.1141318678855896, 0.19521962106227875, 0.15721218287944794, 0.24040508270263672, 0.002190088853240013, -0.07180710136890411, -0.041823018342256546, 0.03233087435364723, -0.01941519044339657, -0.028503401204943657, -0.2687208652496338, 0.13516448438167572, -0.1252068281173706, 0.11223401874303818], [-0.05984806641936302, 0.12645210325717926, -0.059507016092538834, 0.08202022314071655, -0.046561095863580704, -0.08691264688968658, -0.05711686238646507, 0.28195953369140625, 0.24729211628437042, 0.539472222328186, -0.04885406792163849, -0.029778311029076576, 0.06542019546031952, 0.11573300510644913, -0.05870192497968674, 0.13790521025657654, -0.1459854394197464, 7.340896991081536e-05, 0.04841538146138191, 0.11464618146419525, 0.14825698733329773, 0.15778763592243195, 0.21405790746212006, -0.03878431022167206, 0.26543501019477844, -0.052632562816143036, 0.11376681923866272, -0.17589406669139862, 0.16154462099075317, -0.019186094403266907, 0.27952584624290466, -0.15185675024986267, 0.05005703493952751, 0.11405950784683228, 0.11702583730220795, 0.20916539430618286, 0.1454705148935318, 0.028029397130012512, 0.2508796155452728, 0.07917076349258423, 0.1812204271554947, 0.09564784169197083, 0.1112145185470581, 0.0896139144897461, 0.01079811155796051, 0.34961193799972534, -0.10101746022701263, 0.17262393236160278, 0.06496473401784897, 0.2527426481246948, -0.057520344853401184, 0.2942676544189453, 0.030688529834151268, 0.12876401841640472, 0.03713119029998779, -0.01948946714401245, 0.048392243683338165, 0.2010004073381424, 0.008527465164661407, -0.13028737902641296, 0.08889752626419067, 0.10644301027059555, 0.20132488012313843, 0.18783143162727356], [-0.11984734982252121, 0.28540077805519104, -0.24385717511177063, 0.16976603865623474, 0.01739787869155407, -0.06501391530036926, -0.38275158405303955, 0.10548567026853561, 0.12822170555591583, 0.6977056264877319, 0.04641427844762802, -0.12340234220027924, -0.04988757520914078, 0.11873480677604675, -0.10818260908126831, -0.060195550322532654, -0.15939347445964813, 0.0012020275462418795, 0.024112071841955185, -0.07499328255653381, -0.057998787611722946, 0.07516957074403763, 0.01232238207012415, -0.03310203552246094, 0.35145846009254456, -0.24412868916988373, -0.10257528722286224, -0.10925361514091492, -0.03996328264474869, -0.06350260972976685, 0.2255859225988388, -0.04859492555260658, 0.11907336860895157, 0.008431851863861084, 0.020031064748764038, 0.19344933331012726, 0.16180363297462463, -0.01865766942501068, 0.2185344398021698, 0.13141441345214844, 0.18584653735160828, -0.0527072548866272, 0.12941986322402954, 0.21557621657848358, 0.041792403906583786, 0.2891009747982025, 0.05600419640541077, 0.07912255078554153, 0.08998383581638336, 0.2292427122592926, 0.056800633668899536, 0.07813186943531036, -0.20837073028087616, 0.11402035504579544, -0.0933297723531723, -0.04483991861343384, 0.026817314326763153, 0.2328716367483139, 0.08162102103233337, -0.08006087690591812, 0.2936606705188751, 0.19706229865550995, 0.13159002363681793, 0.21509629487991333], [0.05998285114765167, 0.09013501554727554, 0.14010381698608398, 0.13470394909381866, 0.029923919588327408, 0.002757459878921509, 0.21890904009342194, 0.0666772648692131, -0.02098614163696766, -0.8012837767601013, -0.01737236976623535, 0.0021278299391269684, -0.06907283514738083, 0.0005667576333507895, 0.08201819658279419, 0.17220623791217804, 0.21688541769981384, -0.07313978672027588, 0.05791458860039711, 0.11877993494272232, 0.08633274585008621, 0.07848324626684189, -0.0006005553295835853, 0.00628507137298584, -0.15126477181911469, 0.08136891573667526, 0.11737805604934692, 0.22636838257312775, 0.21727092564105988, 0.1035163402557373, 0.16135233640670776, 0.14703474938869476, 0.08731508255004883, 0.0913415402173996, -0.11961859464645386, -0.1466137021780014, 0.01758880354464054, 0.023096129298210144, -0.012150715105235577, -0.050853174179792404, -0.15161573886871338, 0.11924204230308533, 0.11056170612573624, -0.02910960279405117, -0.04151826351881027, -0.3911213278770447, -0.009243324398994446, 0.06222638487815857, -0.02991357631981373, 0.07714255899190903, -0.012324824929237366, 0.04721522331237793, 0.09692768007516861, 0.12891006469726562, 0.014679552055895329, -0.0988009124994278, -0.04944218322634697, 0.03952740505337715, -0.07150128483772278, 0.1748112589120865, -0.07389562577009201, 0.17542344331741333, -0.06231527775526047, -0.004207338206470013], [-0.05859629809856415, 0.008115559816360474, 0.10587266087532043, 0.03403770923614502, 0.01497890055179596, -0.07081837952136993, -0.02527238428592682, -0.065345898270607, -0.05862705409526825, -0.07955290377140045, 0.08844076097011566, -0.07816626131534576, 0.026106879115104675, -0.06752723455429077, -0.0317867249250412, -0.08265289664268494, 0.0535288006067276, 0.05476002395153046, -0.029751121997833252, 0.04243731498718262, -0.020908385515213013, -0.06689468026161194, -0.11023889482021332, -0.0856391191482544, -0.11298467218875885, -0.11969341337680817, -0.10747814178466797, 0.09163722395896912, -0.06568539142608643, -0.07766701281070709, -0.0884644091129303, 0.03185689449310303, -0.12314218282699585, 0.015161916613578796, 0.05624799430370331, -0.022220581769943237, 0.1031126081943512, 0.09487488865852356, -0.0651659220457077, -0.009654834866523743, 0.06747063994407654, -0.11540770530700684, -0.00249500572681427, -0.039407879114151, -0.04725688695907593, -0.03352934122085571, -0.07901254296302795, -0.10571612417697906, 0.0030867159366607666, -0.07664559781551361, -0.10972456634044647, -0.0801410973072052, -0.1054551899433136, 0.03594522178173065, 0.052593886852264404, 0.10917873680591583, 0.010897621512413025, 0.11786466836929321, -0.08031758666038513, 0.010551691055297852, 0.03807748854160309, 0.0936768651008606, 0.053552210330963135, 0.08459670841693878], [-0.17083428800106049, 0.18457229435443878, -0.1315319836139679, 0.09616953134536743, -0.08753602206707001, -0.12157078087329865, -0.4009379744529724, 0.1916530728340149, 0.2246043086051941, 0.765503466129303, -0.003708021016791463, 0.012585240416228771, 0.06784556806087494, 0.30304214358329773, -0.1835753172636032, -0.04794662445783615, -0.19380268454551697, 0.1382787823677063, -0.03721227869391441, -0.25408288836479187, -0.07034412771463394, 0.07888016104698181, 0.010411340743303299, 0.05046631395816803, 0.29997700452804565, -0.10684573650360107, -0.009648293256759644, -0.09378886967897415, -0.10129065066576004, -0.017042383551597595, 0.23662804067134857, -0.1598673015832901, 0.08377303928136826, 0.06300845742225647, -0.03756791353225708, 0.29664039611816406, 0.07975227385759354, -0.01982875168323517, 0.2227173149585724, 0.16744188964366913, 0.3961092233657837, 0.06706163287162781, 0.10256412625312805, 0.2537425458431244, -0.0022459502797573805, 0.21531446278095245, 0.02082321047782898, 0.1974164843559265, 0.11116885393857956, 0.24825285375118256, -0.048960402607917786, 0.09781456738710403, -0.09987335652112961, 0.21667692065238953, 0.03554214537143707, 0.003284245729446411, 0.22023209929466248, 0.2031518667936325, 0.14564873278141022, -0.034598082304000854, 0.3036399483680725, 0.13714568316936493, 0.1288745403289795, 0.07983849942684174], [0.001839996431954205, 0.0617712065577507, 0.016971515491604805, -0.1164945736527443, 0.03024280071258545, -0.10303394496440887, 0.1505468338727951, -0.011949588544666767, -0.01743575558066368, -0.10288570821285248, -0.18428535759449005, -0.14218738675117493, -0.15549035370349884, 0.02682320587337017, -0.07496658712625504, 0.04774484783411026, -0.11875125765800476, -0.10524363815784454, -0.003766680834814906, -0.05194878950715065, 0.0440857894718647, -0.021530386060476303, -0.053900524973869324, 0.08974680304527283, 0.020560674369335175, 0.1412697285413742, 0.033112943172454834, -0.0010564594995230436, -0.10205090045928955, -0.07331041991710663, 0.0587768517434597, 0.10863857716321945, 0.0200530793517828, -0.11654569208621979, -0.016366884112358093, 0.0396595261991024, -0.04001618176698685, -0.02399468421936035, 0.023022521287202835, 0.0007929866551421583, -0.15807239711284637, -0.020205065608024597, -0.14362408220767975, -0.005378258414566517, 0.027999307960271835, 0.019280241802334785, 0.01564803719520569, -0.030784210190176964, 0.04221262037754059, 0.08096663653850555, -0.11058801412582397, 0.03647436946630478, 0.0517512746155262, 0.032939355820417404, 0.1662435531616211, -0.03949640691280365, 0.019496435299515724, -0.04470476880669594, -0.1524060070514679, -0.07313963770866394, -0.0691213458776474, -0.1572490632534027, -0.11218719184398651, -0.09313628822565079], [-0.09179443120956421, -0.11905679106712341, -0.07964026927947998, -0.026584893465042114, 0.014695246703922749, -0.009878695011138916, -0.0256803035736084, 0.06654722988605499, -0.05175338685512543, 0.08694009482860565, -0.10685255378484726, -0.17865756154060364, -0.1585974097251892, -0.02682606875896454, 0.11941902339458466, 0.056260380893945694, -0.03605622798204422, -0.08138314634561539, 0.027107583358883858, 0.08380796015262604, -0.1634754240512848, -0.06379513442516327, 0.05222894623875618, 0.005504816770553589, -0.05767233669757843, 0.026478199288249016, -0.0772152692079544, 0.005963459610939026, -0.060912083834409714, 0.06948250532150269, 0.03302563726902008, -0.15068499743938446, -0.009822060354053974, 0.12039124965667725, 0.030975595116615295, -0.03797332942485809, 0.030275234952569008, -0.1039985865354538, -0.013095797039568424, -0.09732554852962494, -0.08413392305374146, -0.008431613445281982, -0.008426533080637455, -0.07678882777690887, -0.0698358565568924, -0.011225834488868713, -0.0016737878322601318, -0.1592985838651657, -0.017513342201709747, -0.0935644656419754, 0.09729260206222534, 0.013595819473266602, 0.08439157903194427, -0.11032921075820923, -0.05648532509803772, -0.010147452354431152, -0.030809395015239716, -0.04661299288272858, -0.05971154198050499, -0.14627498388290405, 0.04460027813911438, -0.06883956491947174, -0.07257349789142609, -0.02826792001724243], [-0.15628811717033386, 0.21467924118041992, -0.024023491889238358, 0.12735986709594727, 0.035362791270017624, 0.02050989866256714, -0.15531456470489502, 0.20924420654773712, 0.16090939939022064, 0.5758503675460815, 0.014546791091561317, -0.00015877615078352392, 0.03230368345975876, 0.1388024389743805, -0.12887270748615265, -0.04506269842386246, 0.04160681739449501, 0.11170882731676102, 0.03820541873574257, 0.2615824341773987, 0.012911365367472172, 0.06107255071401596, 0.0005617785500362515, 0.12182073295116425, 0.14725902676582336, -0.003952763043344021, -0.12411877512931824, -0.16198070347309113, 0.02648356929421425, -0.07783828675746918, 0.21884964406490326, -0.08474583923816681, 0.006756898481398821, -0.11175376176834106, 0.036754950881004333, 0.3026864230632782, 0.06871377676725388, -0.09770318865776062, 0.16687017679214478, 0.2009400725364685, 0.24907037615776062, -0.09548836946487427, 0.09010389447212219, 0.10894855111837387, 0.0427401177585125, 0.15681996941566467, -0.09868289530277252, -0.004915522877126932, 0.17004919052124023, 0.23195357620716095, 0.012269631028175354, 0.15561777353286743, -0.08915196359157562, 0.19739897549152374, -0.10580004751682281, -0.0401802659034729, 0.12842902541160583, 0.25577443838119507, 0.20506256818771362, 0.0937451720237732, 0.3234884738922119, 0.23747193813323975, 0.2460521012544632, 0.19799886643886566], [0.12629202008247375, 0.08066411316394806, 0.015147479251027107, 0.19023115932941437, -0.052985165268182755, -0.051358237862586975, 0.028215579688549042, 0.05926007404923439, 0.0532325841486454, 0.9990744590759277, -0.1093677207827568, 0.060608118772506714, -0.14154739677906036, 0.12436849623918533, -0.07515358924865723, -0.0230635367333889, -0.021676603704690933, -0.045728400349617004, -0.10336217284202576, 0.12339837104082108, 0.009934687986969948, 0.05580577254295349, 0.057874057441949844, -0.05878232419490814, 0.4402095377445221, 0.037854310125112534, -0.08756329119205475, 0.08336708694696426, 0.03871002793312073, 0.01255694031715393, 0.06126932427287102, 0.06576070189476013, -0.1592777520418167, -0.02428479492664337, 0.08486528694629669, 0.25958651304244995, 0.17294470965862274, 0.05034743249416351, 0.1514873504638672, 0.2387809157371521, 0.24575543403625488, -0.07204112410545349, 0.23860310018062592, 0.05747867748141289, 0.03870602697134018, 0.2632274925708771, -0.03014548122882843, -0.0211152583360672, -0.08213112503290176, 0.10460377484560013, 0.10249271988868713, 0.14843754470348358, -0.28924354910850525, 0.03590252250432968, 0.06396086513996124, 0.016444146633148193, 0.15727615356445312, 0.027980539947748184, 0.14310123026371002, -0.17705899477005005, 0.3478771448135376, 0.21626827120780945, 0.2394414246082306, 0.10760745406150818], [0.044722579419612885, -0.18220534920692444, -0.16877594590187073, -0.010333494283258915, 0.02907213754951954, 0.12190264463424683, -0.031069938093423843, 0.07677195966243744, -0.10639907419681549, -0.11619482934474945, 0.10482881963253021, -0.08515781909227371, 0.051589202135801315, 0.06759235262870789, -0.09499338269233704, -0.11687947064638138, -0.030657192692160606, -0.01816326379776001, -0.04277202486991882, -0.0030358480289578438, -0.0964740440249443, 0.01476475689560175, 0.06020212918519974, -0.015349924564361572, -0.03063441812992096, -0.03869082033634186, -0.11130701005458832, 0.0622205026447773, -0.10056594759225845, 0.05985754728317261, -0.0031240431126207113, -0.07538095116615295, -0.0491657629609108, -0.11006449162960052, 0.022058144211769104, 0.10127857327461243, -0.16427196562290192, 0.11425703763961792, -0.07125121355056763, -0.021872416138648987, 0.05123099684715271, 0.008138895034790039, -0.11483651399612427, 0.016533970832824707, 0.030374819412827492, -0.0162823349237442, -0.01711343228816986, -0.11183890700340271, 0.008863553404808044, -0.17578035593032837, -0.09768165647983551, -0.17203783988952637, -0.17848998308181763, 0.017085948958992958, 0.018932657316327095, -0.10193319618701935, -0.05494455248117447, -0.13449150323867798, -0.12524664402008057, -0.00045524784945882857, 0.05878746509552002, -0.10679929703474045, 0.10274936258792877, -0.14511090517044067], [-0.000410043983720243, 0.10581444948911667, 0.07188578695058823, 0.16116183996200562, -0.09375321865081787, -0.04070901870727539, 0.023720532655715942, 0.14283660054206848, 0.1727430522441864, 0.5639201998710632, -0.06204694136977196, -0.05167539790272713, -0.1136365458369255, 0.2136150747537613, -0.08128910511732101, 0.046339113265275955, -0.15359477698802948, -0.04773831367492676, -0.09016285836696625, 0.14031481742858887, 0.1070338562130928, 0.17368274927139282, 0.18425948917865753, -0.05778886377811432, 0.16535219550132751, 0.04820137843489647, -0.08867187798023224, -0.10613073408603668, 0.19323432445526123, 0.09621329605579376, 0.09057056158781052, -0.021267833188176155, -0.0699092447757721, -0.03804813325405121, 0.07869881391525269, 0.1533961147069931, 0.10451380163431168, -0.11653901636600494, 0.07963409274816513, 0.22015458345413208, 0.20669306814670563, -0.04614078998565674, 0.09180592745542526, 0.26200351119041443, -0.011798976920545101, 0.1890382021665573, 0.03817281126976013, 0.07340903580188751, 0.1470365822315216, 0.12459395080804825, 0.058743953704833984, 0.1990872472524643, -0.10974151641130447, 0.13430626690387726, -0.028415225446224213, 0.027851760387420654, 0.15643660724163055, 0.16020745038986206, 0.17360538244247437, -0.16759417951107025, 0.29140540957450867, 0.13373494148254395, 0.17195796966552734, 0.09820615500211716], [-0.01317183580249548, 0.00870921928435564, -0.14223936200141907, -0.039398349821567535, -0.06481343507766724, 0.08149592578411102, 0.07646305114030838, -0.11184922605752945, -0.1783910095691681, -0.18462172150611877, -0.01664140820503235, -0.15405231714248657, 0.1716390699148178, -0.008406111039221287, -0.10555276274681091, -0.11051325500011444, -0.008618747815489769, 0.05401676893234253, 0.04510992765426636, -0.05318203195929527, -0.0899527296423912, -0.004469186998903751, -0.1402343213558197, -0.049879372119903564, -0.14491006731987, 0.16642194986343384, -0.06466139853000641, 0.1161317452788353, -0.19837142527103424, 0.058591023087501526, 0.012575085274875164, -0.16595439612865448, 0.11514122784137726, -0.017774105072021484, 0.11076332628726959, -0.12759087979793549, -0.09466347843408585, 0.04266147315502167, -0.008381141349673271, -0.0747452899813652, -0.16910222172737122, -0.09764793515205383, -0.16069985926151276, -0.028798844665288925, -0.1168336346745491, -0.052826888859272, -0.07171270251274109, -0.06601974368095398, -0.0859701856970787, 0.01934545300900936, -0.08022432029247284, -0.08864712715148926, 0.16422855854034424, -0.07833725959062576, -0.03334677219390869, -0.08664554357528687, -0.11046260595321655, -0.07529514282941818, -0.17640633881092072, 0.04450695961713791, -0.09362133592367172, 0.003085328033193946, -0.0008350189309567213, -0.09504512697458267], [0.16438069939613342, -0.09815455973148346, 0.20236870646476746, -0.07474787533283234, 0.16101962327957153, 0.11579160392284393, 0.1667177528142929, -0.05787048488855362, -0.1237066239118576, -0.34981784224510193, -0.031039487570524216, 0.11657081544399261, -0.06214693561196327, -0.10939333587884903, 0.13309086859226227, 0.10056672990322113, -0.005989815574139357, 0.048060182482004166, -0.06029164418578148, 0.1876867413520813, -0.023097600787878036, 0.053131356835365295, 0.031214922666549683, -0.06272254884243011, -0.032451529055833817, 0.21291930973529816, -0.08074039220809937, 0.22163745760917664, 0.17137731611728668, -0.08844254910945892, 0.049802735447883606, 0.005156478378921747, 0.044631462544202805, 0.034745052456855774, 0.0870622992515564, 0.03311336785554886, -0.08218561857938766, 0.02891908586025238, -0.1610947847366333, -0.16469669342041016, -0.2141689956188202, -0.009181112051010132, 0.12768183648586273, -0.10601945966482162, 0.007113320752978325, -0.04827219620347023, 0.08930516242980957, 0.06883080303668976, 0.07859348505735397, -0.026777369901537895, -0.08897186815738678, 0.009078356437385082, 0.18913210928440094, -0.005001720506697893, -0.046689633280038834, 0.0738050639629364, 0.08447451889514923, 0.026848576962947845, 0.11069556325674057, 0.08928940445184708, -0.19506724178791046, -0.05138359218835831, 0.06204963102936745, 0.014569961465895176], [-0.08193235099315643, 0.22004395723342896, -0.07033459842205048, 0.15658777952194214, -0.05326739698648453, 0.0751369446516037, -0.116506427526474, 0.18322983384132385, 0.04165177047252655, 0.49959805607795715, -0.12795349955558777, -0.06582899391651154, -0.003455062862485647, 0.11536676436662674, 0.11854016780853271, 0.04654783755540848, -0.05253750458359718, -0.14241474866867065, -0.16186703741550446, 0.2670420706272125, 0.0014316362794488668, 0.14976537227630615, 0.23647058010101318, 0.002981618046760559, 0.1722598373889923, -0.13019274175167084, 0.0796298086643219, -0.11867199838161469, 0.12555669248104095, 0.015285298228263855, 0.1612909436225891, -0.04305017739534378, 0.051128797233104706, -0.08952206373214722, 0.06147536635398865, 0.14927777647972107, 0.15415851771831512, -0.08615759015083313, 0.08217540383338928, 0.21676738560199738, 0.3454725444316864, -0.1153671145439148, 0.20200298726558685, 0.3078126907348633, -0.1859404742717743, 0.36007192730903625, 0.06134004890918732, 0.1789521723985672, 0.1935388296842575, 0.05037017539143562, 0.025316640734672546, 0.04683335870504379, -0.27144908905029297, 0.012258397415280342, 0.05791965126991272, -0.09033167362213135, 0.11040747165679932, 0.2829795777797699, 0.08590617775917053, -0.07949580997228622, 0.1749965399503708, 0.2431965321302414, 0.27462276816368103, 0.2752319276332855], [-0.2742709815502167, 0.10457927733659744, -0.30678701400756836, 0.04544075205922127, -0.014782799407839775, -0.04822118580341339, -0.2400701940059662, -0.06028907373547554, 0.031244855374097824, 1.361729383468628, -0.013976319693028927, 0.0022767693735659122, -0.09667223691940308, 0.2712993323802948, -0.17682750523090363, -0.06817460060119629, -0.1259469836950302, -0.030034534633159637, 0.059446949511766434, -0.3170385956764221, -0.06159814074635506, -0.020429739728569984, -0.04537066072225571, 0.031411126255989075, 0.4775311350822449, -0.031094728037714958, -0.0794537365436554, -0.26798194646835327, -0.0025295487139374018, -0.07904377579689026, 0.022100625559687614, -0.130685493350029, 0.12064014375209808, 0.07642930746078491, 0.08085966110229492, 0.15873047709465027, 0.23894020915031433, -0.10229817032814026, 0.22008387744426727, 0.4080033004283905, 0.33660799264907837, -0.045993924140930176, 0.24191047251224518, 0.20255392789840698, 0.027572283521294594, 0.4770800471305847, 0.12056998908519745, 0.11320529878139496, 0.0903179869055748, 0.028170546516776085, -0.08739425241947174, -0.05386434867978096, -0.19766806066036224, 0.03198571875691414, -0.05477895960211754, 0.08810926973819733, 0.1898094266653061, 0.11258023977279663, 0.04979269579052925, 0.01312895119190216, 0.2772400379180908, 0.1726345419883728, 0.24184784293174744, -0.06971500813961029], [-0.014880195260047913, 0.11027193069458008, 0.03388100862503052, -0.01311519742012024, -0.08809636533260345, -0.05612088739871979, 0.00959867238998413, 0.08354951441287994, 0.02336496114730835, 0.05050455033779144, 0.03131760656833649, -0.04247136414051056, 0.00024463236331939697, -0.05363932251930237, 0.00935913622379303, -0.09747616946697235, 0.059575989842414856, 0.12125228345394135, -0.11042487621307373, -0.04403713345527649, -0.016844764351844788, -0.09337441623210907, -0.012991443276405334, -0.05753333866596222, 0.09667889773845673, -0.07793907821178436, 0.10576315224170685, -0.03917582333087921, 0.08959071338176727, -0.09593389928340912, 0.0716877430677414, 0.027905181050300598, 0.10634720325469971, 0.04348897933959961, 0.039308398962020874, -0.05680547654628754, 0.03522852063179016, 0.01515914499759674, 0.03485071659088135, -0.090065598487854, 0.09550619125366211, 0.08131209015846252, -0.1207570880651474, -0.11533534526824951, 0.04973922669887543, -0.03780040144920349, -0.06515295803546906, -0.1004457175731659, -0.12180674076080322, 0.07486093044281006, 0.06521739065647125, -0.07601773738861084, -0.021805375814437866, -0.014383986592292786, 0.12167936563491821, -0.017167046666145325, 0.12259595096111298, -0.01089632511138916, 0.05956663191318512, -0.06840673089027405, -0.05059036612510681, 0.11588133871555328, -0.047843992710113525, -0.04823894798755646], [0.05026558041572571, 0.07312947511672974, -0.04853463172912598, -0.04716774821281433, 0.0963849425315857, 0.0705036073923111, 0.12428276240825653, 0.0011727511882781982, -0.07454447448253632, -0.02055792510509491, 0.05940793454647064, 0.016415461897850037, -0.08618532121181488, 0.11376132071018219, -0.1000988632440567, -0.026924073696136475, -0.09700454771518707, 0.09193901717662811, 0.0021399706602096558, -0.06553530693054199, -0.12014119327068329, 0.06274665892124176, 0.04574336111545563, 0.08590053021907806, 0.002160206437110901, -0.004465728998184204, 0.079478919506073, 0.017771393060684204, -0.058306336402893066, 0.12219414114952087, -0.07665686309337616, 0.03798912465572357, 0.015188470482826233, -0.07441312074661255, -0.07970878481864929, 0.07366040349006653, -0.03653174638748169, 0.04852810502052307, -0.11814841628074646, -0.10828284919261932, -0.06112588942050934, -0.11033882200717926, -0.11833158135414124, -0.03814888000488281, 0.025678619742393494, 0.09627696871757507, -0.033597156405448914, -0.09075747430324554, 0.096625417470932, 0.0893290787935257, 0.07249125838279724, -0.008965730667114258, 0.10061492025852203, -0.07384602725505829, 0.06485216319561005, 0.1181112676858902, 0.06377947330474854, -0.05229787528514862, -0.07286715507507324, 0.03903383016586304, 0.11233149468898773, -0.046282172203063965, 0.10194602608680725, -0.12050944566726685], [1.2855889508500695e-05, 0.23850536346435547, 0.04131344333291054, 0.053606852889060974, 0.0743166133761406, 0.044810205698013306, -0.10472984611988068, 0.23893745243549347, 0.09692198038101196, 0.8322403430938721, 0.0012115678982809186, 0.11162655055522919, -0.1070277988910675, 0.26246586441993713, -0.08614816516637802, -0.03785006329417229, 0.02111520618200302, -0.13006360828876495, -0.07380558550357819, 0.17170611023902893, -0.004659206140786409, 0.20428603887557983, 0.18725977838039398, -0.10529690980911255, 0.24743527173995972, 0.022942854091525078, -0.0941772609949112, -0.09995884448289871, 0.16556619107723236, 0.11761432886123657, 0.20630097389221191, 0.10931368917226791, -0.16199980676174164, 0.12462599575519562, -0.06436996161937714, 0.09339287132024765, 0.18509294092655182, 0.02526235580444336, 0.16520676016807556, 0.35626351833343506, 0.1633378118276596, -0.06167231500148773, 0.275800496339798, 0.21437323093414307, -0.05360450968146324, 0.171176940202713, -0.028327807784080505, 0.11131808906793594, 0.13828478753566742, 0.1768151968717575, 0.11895494163036346, 0.21519625186920166, -3.038200855255127, 0.14595042169094086, -0.021903157234191895, -0.052647873759269714, 0.2016756385564804, 0.22479690611362457, 0.04882752522826195, -0.033080585300922394, 0.3077569007873535, 0.2791587710380554, 0.3071840703487396, 0.2975122928619385], [-0.10927507281303406, 0.015532001852989197, 0.05690036341547966, -0.12057480216026306, 0.02665562368929386, -0.05053959786891937, -0.03523740544915199, -0.10926210880279541, -0.09969267249107361, 0.09219838678836823, -0.045906562358140945, -0.08710227161645889, -0.024286340922117233, 0.11839205026626587, 0.03878496587276459, 0.01887441799044609, -0.01729482412338257, -0.12675397098064423, -0.06597446650266647, -0.11727455258369446, -0.09728182852268219, -0.008069265633821487, -0.11928873509168625, -0.00740206241607666, 0.010181546211242676, 0.03605244308710098, -2.3111701011657715e-05, -0.10023826360702515, -0.07005102187395096, -0.10409021377563477, -0.15026432275772095, -0.14466166496276855, -0.07324188202619553, 0.02618315815925598, 0.06466063857078552, 0.09323042631149292, -0.006799713242799044, -0.011067256331443787, -0.14490631222724915, -0.04908399283885956, -0.05489726364612579, 0.05497695505619049, -9.661903459345922e-05, 0.11428706347942352, -0.1253846436738968, 0.10564976930618286, 0.017017483711242676, 0.03227594122290611, -0.11765775829553604, -0.13477890193462372, 0.08885110914707184, 0.03464368358254433, 0.06486839801073074, -0.0559525340795517, 0.072208933532238, -0.10285894572734833, 0.005730079486966133, -0.17573067545890808, -0.10310651361942291, -0.05265042930841446, -0.007242911960929632, -0.1286413073539734, 0.02314414083957672, 0.06759755313396454], [-0.03888864815235138, -0.12468883395195007, 0.11872416734695435, 0.006543353199958801, -0.04193134605884552, -0.03630632162094116, -0.01567263901233673, 0.09314082562923431, -0.06518536806106567, 0.1105811595916748, 0.03398299217224121, 0.04732641577720642, -0.009953469038009644, -0.08606381714344025, -0.10784944891929626, -0.08709469437599182, -0.11864835023880005, 0.11000429093837738, 0.03179062902927399, 0.07690387964248657, 0.059867218136787415, -0.026481017470359802, 0.050351232290267944, 0.06592924892902374, -0.0033698081970214844, -0.058147549629211426, -0.11468498408794403, -0.024487227201461792, -0.02522030472755432, -0.03734366595745087, 0.04832875728607178, -0.07185760140419006, -0.05793699622154236, 0.08454778790473938, 0.054506078362464905, -0.05762903392314911, 0.10213474929332733, -0.02940364181995392, 0.040381669998168945, -0.048203274607658386, 0.005791470408439636, -0.12183544039726257, -0.045490965247154236, -0.08296774327754974, 0.0862794816493988, -0.11557283997535706, -0.01819521188735962, -0.11336156725883484, -0.04401600360870361, -0.11561930179595947, 0.022629067301750183, 0.08453311026096344, 0.10950210690498352, 0.009367510676383972, -0.058860644698143005, -0.01290757954120636, -0.09796422719955444, 0.037105903029441833, 0.03791557252407074, -0.11414642632007599, -0.04440699517726898, -0.10114270448684692, 0.05126841366291046, -0.1174822747707367]], "layer_2_bias": [-0.03944947570562363, 0.16224238276481628, -0.03323400765657425, -0.0823148787021637, 0.1732901781797409, 0.0755298063158989, -0.20371372997760773, -0.05348148196935654, 0.08274336159229279, -0.05198806896805763, -0.12250787019729614, 0.02697615697979927, 0.16170720756053925, 0.2540361285209656, 0.06912852823734283, 0.04672129452228546, 0.17837996780872345, -0.13469192385673523, -0.12907864153385162, 0.16528809070587158, 0.17864929139614105, -0.17227932810783386, 0.09334216266870499, -0.057618774473667145, 0.07608334720134735, 0.25865042209625244, 0.03112640604376793, -0.09815467894077301, -0.04384274780750275, 0.07069261372089386, -0.11407503485679626, 0.06449875235557556], "layer_4_weight": [[0.11484342813491821, -0.21686629951000214, 0.07091879099607468, -0.06215165928006172, -0.17898806929588318, 0.18477362394332886, -0.10051748901605606, 0.15843844413757324, 0.11361854523420334, 0.18815641105175018, 0.09197984635829926, 0.09444834291934967, -0.3034954369068146, -0.27019187808036804, 0.12875431776046753, -0.05958554893732071, -0.24961987137794495, -0.05767388269305229, 0.04903285205364227, -0.32866713404655457, -0.0898539200425148, -0.07031319290399551, -0.23479272425174713, 0.003154722973704338, 0.12230633944272995, -0.2655639350414276, -0.1058414876461029, -0.08404482156038284, 0.031320881098508835, -0.21891584992408752, -0.045992009341716766, -0.0922665074467659]], "layer_4_bias": [-0.3191973865032196]}