{
  "approach": "dflash_block_diffusion",
  "config": {
    "block_size": 4,
    "head_dim": 4,
    "hidden_size": 8,
    "intermediate_size": 16,
    "mask_token_id": 15,
    "max_position_embeddings": 1024,
    "num_attention_heads": 2,
    "num_hidden_layers": 2,
    "num_key_value_heads": 1,
    "rms_norm_eps": 1e-05,
    "rope_theta": 10000.0,
    "target_layer_ids": [
      0,
      1
    ],
    "vocab_size": 16
  },
  "draft_model": "z-lab/Kimi-K2.5-DFlash",
  "expected": {
    "hidden_states": [
      [
        [
          -2.1377573013305664,
          1.7783493995666504,
          0.5020163059234619,
          -1.059367299079895,
          -0.7483727931976318,
          -0.7386603355407715,
          0.3145618438720703,
          -1.072152853012085
        ],
        [
          0.14125144481658936,
          0.9587051868438721,
          0.49854159355163574,
          -0.1033315360546112,
          -1.9408515691757202,
          1.8565913438796997,
          -1.1722346544265747,
          -2.279917001724243
        ],
        [
          1.5883879661560059,
          2.1395466327667236,
          1.3837159872055054,
          -2.1071369647979736,
          -0.03231501579284668,
          -0.19917823374271393,
          -2.1756339073181152,
          -1.2091163396835327
        ],
        [
          -0.6586055755615234,
          0.4818093478679657,
          -0.14271488785743713,
          0.5839547514915466,
          -0.586091160774231,
          1.5713529586791992,
          -1.4755390882492065,
          0.8948866724967957
        ]
      ]
    ]
  },
  "golden_reference": "golden_dflash.KimiDFlashDraftModel",
  "inputs": {
    "hidden_states": [
      [
        [
          -2.1320247650146484,
          1.9744443893432617,
          0.5409025549888611,
          -1.0546302795410156,
          -0.6251920461654663,
          -0.6376045346260071,
          0.3307568430900574,
          -0.8908296823501587
        ],
        [
          0.19881214201450348,
          1.445501446723938,
          0.6554657816886902,
          -0.11594219505786896,
          -1.8108997344970703,
          1.7223080396652222,
          -1.0615400075912476,
          -2.2330474853515625
        ],
        [
          1.6229827404022217,
          2.3475818634033203,
          1.3037806749343872,
          -1.8809674978256226,
          -0.0653737485408783,
          -0.4314124882221222,
          -2.0858259201049805,
          -1.234265923500061
        ],
        [
          -0.6286089420318604,
          0.8249358534812927,
          -0.21894879639148712,
          0.7544960975646973,
          -0.4902836084365845,
          1.432723879814148,
          -1.3183759450912476,
          0.8877379894256592
        ]
      ]
    ],
    "position_cos": [
      [
        [
          1.0,
          1.0,
          1.0,
          1.0
        ],
        [
          0.5403022766113281,
          0.9999499917030334,
          0.5403022766113281,
          0.9999499917030334
        ],
        [
          -0.416146844625473,
          0.9998000264167786,
          -0.416146844625473,
          0.9998000264167786
        ],
        [
          -0.9899924993515015,
          0.9995500445365906,
          -0.9899924993515015,
          0.9995500445365906
        ],
        [
          -0.6536436080932617,
          0.9992001056671143,
          -0.6536436080932617,
          0.9992001056671143
        ],
        [
          0.28366219997406006,
          0.9987502694129944,
          0.28366219997406006,
          0.9987502694129944
        ],
        [
          0.9601702690124512,
          0.998200535774231,
          0.9601702690124512,
          0.998200535774231
        ]
      ]
    ],
    "position_sin": [
      [
        [
          0.0,
          0.0,
          0.0,
          0.0
        ],
        [
          0.8414709568023682,
          0.009999833069741726,
          0.8414709568023682,
          0.009999833069741726
        ],
        [
          0.9092974066734314,
          0.019998665899038315,
          0.9092974066734314,
          0.019998665899038315
        ],
        [
          0.14112000167369843,
          0.029995499178767204,
          0.14112000167369843,
          0.029995499178767204
        ],
        [
          -0.756802499294281,
          0.03998933359980583,
          -0.756802499294281,
          0.03998933359980583
        ],
        [
          -0.9589242935180664,
          0.04997916519641876,
          -0.9589242935180664,
          0.04997916519641876
        ],
        [
          -0.279415488243103,
          0.059964004904031754,
          -0.279415488243103,
          0.059964004904031754
        ]
      ]
    ],
    "target_context": [
      [
        [
          -1.1340380907058716,
          0.873712420463562,
          -0.4422399401664734,
          0.08316953480243683,
          0.2367420345544815,
          -0.9293754696846008,
          1.4522606134414673,
          -1.6489421129226685
        ],
        [
          1.4619779586791992,
          0.9725735187530518,
          2.040184259414673,
          0.22295662760734558,
          -0.6111427545547485,
          -0.5032810568809509,
          -0.21789486706256866,
          0.17386719584465027
        ],
        [
          -0.34171777963638306,
          1.043018102645874,
          0.06652873754501343,
          -0.0677308589220047,
          -1.5552202463150024,
          2.041948080062866,
          0.33270397782325745,
          -0.2951030135154724
        ]
      ]
    ]
  },
  "mapping": "one DFlash drafter decoder layer stage",
  "schema_version": 1,
  "seed": 28028,
  "stage": "decoder_layer_1",
  "target_model": "moonshotai/Kimi-K2.5",
  "weights": {
    "down_proj_weight": [
      [
        0.013121604919433594,
        -0.20189082622528076,
        0.06357964873313904,
        -0.17250552773475647,
        -0.06505286693572998,
        0.08254402875900269,
        0.011709481477737427,
        0.18993031978607178,
        -0.23744425177574158,
        -0.085324227809906,
        -0.06846886873245239,
        0.1194453239440918,
        0.24704113602638245,
        0.21406298875808716,
        -0.11913114786148071,
        -0.1573985517024994
      ],
      [
        0.07102033495903015,
        -0.12239375710487366,
        0.23826265335083008,
        0.20477145910263062,
        0.21668988466262817,
        -0.20584040880203247,
        0.010895222425460815,
        0.1429496705532074,
        0.14551112055778503,
        0.18806827068328857,
        0.16230762004852295,
        -0.24333101511001587,
        0.15371274948120117,
        -0.206262469291687,
        -0.07910987734794617,
        -0.19316917657852173
      ],
      [
        -0.0800405740737915,
        -0.16600045561790466,
        0.11922711133956909,
        0.08316165208816528,
        -0.1231803297996521,
        -0.20320665836334229,
        0.02763006091117859,
        0.18951159715652466,
        -0.028796344995498657,
        -0.19713446497917175,
        -0.21278449892997742,
        0.036535441875457764,
        0.03555634617805481,
        -0.07629790902137756,
        0.15519681572914124,
        0.05448809266090393
      ],
      [
        -0.1062452495098114,
        0.1953926384449005,
        -0.11181879043579102,
        0.10264173150062561,
        0.012436836957931519,
        -0.07199069857597351,
        -0.14769476652145386,
        0.09152480959892273,
        -0.03470712900161743,
        -0.08202457427978516,
        0.10999390482902527,
        0.03604799509048462,
        0.05666813254356384,
        0.07224974036216736,
        -0.05857443809509277,
        -0.014310270547866821
      ],
      [
        -0.09465771913528442,
        -0.10943880677223206,
        0.18704763054847717,
        0.04852977395057678,
        -0.024486243724822998,
        -0.2432202696800232,
        0.05981716513633728,
        -0.17090073227882385,
        0.060087114572525024,
        0.20367950201034546,
        -0.07912170886993408,
        0.034263283014297485,
        -0.1199958324432373,
        -0.07563257217407227,
        0.24083036184310913,
        -0.13332006335258484
      ],
      [
        -0.06999713182449341,
        -0.10087144374847412,
        -0.06133222579956055,
        -0.22935378551483154,
        -0.1464579999446869,
        0.14863505959510803,
        -0.1879461407661438,
        -0.17842835187911987,
        -0.1739053726196289,
        -0.0006251335144042969,
        -0.13383501768112183,
        0.16225308179855347,
        -0.1641605794429779,
        -0.12152943015098572,
        0.19919252395629883,
        -0.10701161623001099
      ],
      [
        0.06664177775382996,
        -0.22297915816307068,
        0.030972152948379517,
        -0.19238626956939697,
        -0.18302756547927856,
        -0.05647364258766174,
        0.13549020886421204,
        0.1724972426891327,
        0.11026784777641296,
        0.23958510160446167,
        0.18857678771018982,
        0.12891337275505066,
        -0.15135803818702698,
        -0.12358412146568298,
        -0.076467365026474,
        0.23487243056297302
      ],
      [
        -0.13262641429901123,
        0.08039405941963196,
        -0.009235650300979614,
        0.20674484968185425,
        0.039724886417388916,
        -0.12291145324707031,
        0.1258496344089508,
        -0.1524657905101776,
        -0.026738256216049194,
        -0.030390888452529907,
        -0.09986534714698792,
        -0.1975426971912384,
        -0.03249514102935791,
        0.10939720273017883,
        -0.08333656191825867,
        -0.07730206847190857
      ]
    ],
    "gate_proj_weight": [
      [
        -0.27986443042755127,
        0.35027241706848145,
        0.11462901532649994,
        -0.23194687068462372,
        0.2073388397693634,
        -0.20446448028087616,
        0.03389592841267586,
        -0.0277158934623003
      ],
      [
        0.04588670656085014,
        0.038601793348789215,
        -0.08558516204357147,
        -0.27236056327819824,
        -0.021975873038172722,
        -0.2469445765018463,
        0.1147409975528717,
        -0.13397783041000366
      ],
      [
        -0.25534510612487793,
        -0.03534877300262451,
        -0.18765103816986084,
        0.007438075728714466,
        -0.33209630846977234,
        0.18125808238983154,
        0.16368061304092407,
        -0.23478014767169952
      ],
      [
        0.083591528236866,
        -0.2413642555475235,
        -0.2729268968105316,
        -0.018197111785411835,
        -0.31479519605636597,
        0.13919025659561157,
        0.24494622647762299,
        0.09404512494802475
      ],
      [
        0.2181885838508606,
        0.1997346729040146,
        -0.04547999054193497,
        -0.2502707540988922,
        0.1545238345861435,
        0.21677277982234955,
        0.09519068151712418,
        0.2548520565032959
      ],
      [
        0.2822645306587219,
        -0.3454494774341583,
        0.23274661600589752,
        -0.1530059576034546,
        0.079548679292202,
        0.14100168645381927,
        0.08712520450353622,
        -0.18304304778575897
      ],
      [
        -0.26963376998901367,
        0.35121166706085205,
        0.24461689591407776,
        0.14080902934074402,
        0.1292470544576645,
        0.305485337972641,
        0.2313610315322876,
        0.04208999127149582
      ],
      [
        0.3242921233177185,
        -0.1261179894208908,
        0.16415101289749146,
        0.05582952871918678,
        -0.015327333472669125,
        -0.2745397686958313,
        0.3332592248916626,
        -0.2789434790611267
      ],
      [
        -0.17051471769809723,
        -0.2346908003091812,
        0.14375126361846924,
        0.1619238406419754,
        0.17546749114990234,
        0.20292168855667114,
        0.10649716109037399,
        0.14298132061958313
      ],
      [
        0.1391528695821762,
        0.03276196867227554,
        -0.24125820398330688,
        -0.13492023944854736,
        -0.345043808221817,
        -0.0882607251405716,
        -0.08298175036907196,
        0.3054393529891968
      ],
      [
        -0.04862397536635399,
        -0.3048478066921234,
        0.15699894726276398,
        -0.3170301914215088,
        -0.2405969649553299,
        0.0318150520324707,
        -0.15591774880886078,
        -0.11880901455879211
      ],
      [
        0.29883408546447754,
        0.3187086582183838,
        0.188057541847229,
        -0.19882632791996002,
        0.32113778591156006,
        0.28500238060951233,
        -0.04460860416293144,
        0.31316667795181274
      ],
      [
        0.19872677326202393,
        -0.12184367328882217,
        0.012325718998908997,
        -0.1485910713672638,
        -0.2778620421886444,
        0.21874947845935822,
        -0.14609341323375702,
        -0.2245120406150818
      ],
      [
        -0.19333383440971375,
        -0.16951154172420502,
        0.031056873500347137,
        -0.046591948717832565,
        0.12857060134410858,
        -0.12967616319656372,
        0.3202711045742035,
        0.13195094466209412
      ],
      [
        -0.34700191020965576,
        0.04167741537094116,
        0.04346313700079918,
        0.3062734305858612,
        0.22991527616977692,
        -0.25683897733688354,
        -0.1656041145324707,
        -0.3061564266681671
      ],
      [
        -0.21409465372562408,
        -0.10654221475124359,
        0.09358783066272736,
        0.24994976818561554,
        -0.09287778288125992,
        -0.3237236440181732,
        0.29268836975097656,
        -0.353275328874588
      ]
    ],
    "input_layernorm_weight": [
      1.0,
      1.0,
      1.0,
      1.0,
      1.0,
      1.0,
      1.0,
      1.0
    ],
    "k_norm_weight": [
      1.0,
      1.0,
      1.0,
      1.0
    ],
    "k_proj_weight": [
      [
        0.07530806958675385,
        -0.13958445191383362,
        -0.2649429142475128,
        -0.32502198219299316,
        -0.1379673331975937,
        -0.10420238971710205,
        -0.19237658381462097,
        0.19031253457069397
      ],
      [
        0.30304092168807983,
        -0.2240706831216812,
        0.1422458291053772,
        -0.28662025928497314,
        -0.1805824190378189,
        0.3462851941585541,
        0.04063744097948074,
        -0.1441265046596527
      ],
      [
        -0.11933273077011108,
        0.16536033153533936,
        -0.019121941179037094,
        0.2364204227924347,
        -0.23592141270637512,
        -0.18938429653644562,
        -0.13876301050186157,
        0.020744552835822105
      ],
      [
        -0.02237723581492901,
        -0.0949276015162468,
        0.07421036064624786,
        -0.23550504446029663,
        -0.25894492864608765,
        -0.1633908897638321,
        0.05902143567800522,
        -0.22692009806632996
      ]
    ],
    "o_proj_weight": [
      [
        -0.20817212760448456,
        0.18372885882854462,
        -0.22625936567783356,
        -0.20900748670101166,
        0.23189887404441833,
        -0.10911131650209427,
        0.25307697057724,
        0.35231372714042664
      ],
      [
        0.025347240269184113,
        -0.10727418214082718,
        -0.3478151857852936,
        -0.0483957938849926,
        0.2685782313346863,
        -0.27995893359184265,
        0.3312322497367859,
        0.11524634063243866
      ],
      [
        0.2999024987220764,
        -0.16971848905086517,
        0.014311172999441624,
        0.2070697396993637,
        -0.16723553836345673,
        0.09919121861457825,
        0.3063797652721405,
        -0.010130373761057854
      ],
      [
        0.07170949131250381,
        0.2545858919620514,
        -0.30077043175697327,
        0.12237779796123505,
        0.2491486817598343,
        0.05271512642502785,
        -0.2198554426431656,
        -0.17497386038303375
      ],
      [
        0.09506512433290482,
        0.06361261755228043,
        0.1491812914609909,
        0.06871078163385391,
        0.12822997570037842,
        -0.1652529388666153,
        0.16669411957263947,
        0.0718400627374649
      ],
      [
        0.0808851569890976,
        0.012739179655909538,
        0.0997653380036354,
        -0.034781601279973984,
        -0.2002672404050827,
        -0.20130619406700134,
        -0.038292646408081055,
        -0.24250979721546173
      ],
      [
        0.2797473967075348,
        0.08654644340276718,
        0.0987701267004013,
        0.19980080425739288,
        -0.0059892358258366585,
        0.04039492830634117,
        -0.29295414686203003,
        -0.03965386003255844
      ],
      [
        -0.22454926371574402,
        -0.2726956605911255,
        0.2273523211479187,
        -0.1575833112001419,
        0.009245205670595169,
        0.006098227575421333,
        -0.048832137137651443,
        0.16807201504707336
      ]
    ],
    "post_attention_layernorm_weight": [
      1.0,
      1.0,
      1.0,
      1.0,
      1.0,
      1.0,
      1.0,
      1.0
    ],
    "q_norm_weight": [
      1.0,
      1.0,
      1.0,
      1.0
    ],
    "q_proj_weight": [
      [
        0.21040204167366028,
        -0.1772775650024414,
        -0.32330214977264404,
        -0.16093727946281433,
        0.17103077471256256,
        -0.15652711689472198,
        0.11284531652927399,
        -0.05752682313323021
      ],
      [
        0.009507359936833382,
        0.2757152020931244,
        0.07224222272634506,
        0.32190296053886414,
        0.2529419958591461,
        0.2253381609916687,
        0.08764247596263885,
        -0.21282611787319183
      ],
      [
        0.028646791353821754,
        0.004174560774117708,
        -0.2920129895210266,
        0.2956436276435852,
        -0.26109227538108826,
        0.05192204937338829,
        0.13436579704284668,
        -0.09173084050416946
      ],
      [
        0.1709660291671753,
        0.24318048357963562,
        -0.11778973788022995,
        0.020693553611636162,
        0.3191168010234833,
        0.23084937036037445,
        -0.04600682482123375,
        0.07718554884195328
      ],
      [
        -0.08428888767957687,
        -0.17280013859272003,
        0.16004906594753265,
        0.0946691557765007,
        0.11076819896697998,
        0.09910692274570465,
        -0.04095291346311569,
        -0.2786000072956085
      ],
      [
        -0.3510205149650574,
        0.18069739639759064,
        0.05396714061498642,
        0.02660633623600006,
        -0.18044549226760864,
        0.24540452659130096,
        -0.1953284740447998,
        -0.1635221391916275
      ],
      [
        0.2137378752231598,
        -0.15259818732738495,
        -0.28584906458854675,
        0.29349789023399353,
        0.31129753589630127,
        -0.003807419678196311,
        0.07794279605150223,
        0.12831291556358337
      ],
      [
        -0.12784723937511444,
        0.08850222826004028,
        0.3157251477241516,
        0.18406134843826294,
        -0.19681140780448914,
        0.03813185542821884,
        -0.16056835651397705,
        -0.12598910927772522
      ]
    ],
    "up_proj_weight": [
      [
        -0.014004933647811413,
        0.08819611370563507,
        -0.16321851313114166,
        -0.31703314185142517,
        -0.15514793992042542,
        0.09788917005062103,
        0.029895391315221786,
        0.2216319739818573
      ],
      [
        -0.08040788024663925,
        -0.17158503830432892,
        -0.17518076300621033,
        0.3135507106781006,
        0.23934908211231232,
        0.296785831451416,
        -0.009853427298367023,
        0.08274517953395844
      ],
      [
        -0.23701469600200653,
        0.228790745139122,
        -0.3034185767173767,
        0.19899912178516388,
        0.2433493733406067,
        -0.3430483639240265,
        -0.09584538638591766,
        0.24315540492534637
      ],
      [
        0.07281234860420227,
        0.2666684091091156,
        0.0866326317191124,
        0.16708847880363464,
        0.1225222796201706,
        0.18708640336990356,
        0.012613076716661453,
        0.27226704359054565
      ],
      [
        0.3413480818271637,
        -0.1763356328010559,
        0.041238583624362946,
        0.29660388827323914,
        0.33978742361068726,
        0.3116113841533661,
        -0.1409282684326172,
        -0.18666522204875946
      ],
      [
        0.12064088135957718,
        -0.2633010447025299,
        0.03975362330675125,
        -0.21408264338970184,
        -0.2569383978843689,
        -0.2574218213558197,
        -0.20671018958091736,
        -0.15666012465953827
      ],
      [
        0.2943964898586273,
        0.05049601197242737,
        -0.23245525360107422,
        0.050436247140169144,
        -0.07051821053028107,
        0.2760847806930542,
        0.3518584370613098,
        0.04824267327785492
      ],
      [
        -0.2665385603904724,
        0.11257494986057281,
        -0.3173702657222748,
        0.08576229959726334,
        0.34107619524002075,
        0.013527789153158665,
        0.2238178849220276,
        0.1449074000120163
      ],
      [
        0.24555642902851105,
        -0.2989497780799866,
        -0.04367121681571007,
        -0.32754427194595337,
        0.04639562964439392,
        0.16563311219215393,
        -0.19561253488063812,
        0.16121788322925568
      ],
      [
        -0.019255798310041428,
        -0.3340980112552643,
        -0.019428811967372894,
        -0.2923194468021393,
        0.13324220478534698,
        -0.08160312473773956,
        0.13488340377807617,
        0.18848222494125366
      ],
      [
        -0.18299773335456848,
        -0.34506717324256897,
        -0.2853848934173584,
        0.26731082797050476,
        0.002852329984307289,
        -0.0267331562936306,
        -0.2862986624240875,
        -0.020092835649847984
      ],
      [
        -0.2540261745452881,
        0.35345908999443054,
        0.09880199283361435,
        0.07218166440725327,
        -0.2944205105304718,
        -0.13702796399593353,
        0.10066328197717667,
        0.04253228008747101
      ],
      [
        0.05335394665598869,
        -0.2836861312389374,
        -0.14630216360092163,
        0.02329009585082531,
        0.09668533504009247,
        -0.020608333870768547,
        0.1503315269947052,
        -0.3008694350719452
      ],
      [
        0.0630585104227066,
        0.053675148636102676,
        0.23936201632022858,
        -0.11715125292539597,
        -0.23312437534332275,
        -0.026074105873703957,
        0.31229904294013977,
        0.14040729403495789
      ],
      [
        0.10261699557304382,
        -0.2579658627510071,
        -0.19074082374572754,
        0.16373296082019806,
        0.34332704544067383,
        -0.09671871364116669,
        0.3384428918361664,
        -0.0582578182220459
      ],
      [
        -0.13670119643211365,
        0.15435634553432465,
        -0.1110410988330841,
        -0.05432964861392975,
        0.11519432812929153,
        0.28747832775115967,
        0.09773491322994232,
        -0.23383206129074097
      ]
    ],
    "v_proj_weight": [
      [
        -0.34150898456573486,
        -0.2042955458164215,
        0.21538463234901428,
        -0.34139934182167053,
        -0.04597407579421997,
        -0.05583049729466438,
        0.17986635863780975,
        0.18474826216697693
      ],
      [
        -0.23299114406108856,
        0.28449809551239014,
        -0.021091926842927933,
        -0.27994638681411743,
        -0.22202567756175995,
        0.2116573005914688,
        -0.2581133246421814,
        0.3182511031627655
      ],
      [
        -0.1291184276342392,
        0.06288713961839676,
        -0.03676553815603256,
        -0.01576414331793785,
        -0.25356972217559814,
        -0.2646515667438507,
        -0.3047759234905243,
        -0.19586175680160522
      ],
      [
        -0.22461412847042084,
        -0.05714252591133118,
        -0.27148085832595825,
        0.0698058009147644,
        -0.14216376841068268,
        -0.10700098425149918,
        -0.21782144904136658,
        0.20852920413017273
      ]
    ]
  }
}
