{
  "approach": "dflash_block_diffusion",
  "config": {
    "block_size": 4,
    "head_dim": 4,
    "hidden_size": 8,
    "intermediate_size": 16,
    "mask_token_id": 15,
    "max_position_embeddings": 1024,
    "num_attention_heads": 2,
    "num_hidden_layers": 2,
    "num_key_value_heads": 1,
    "rms_norm_eps": 1e-05,
    "rope_theta": 10000.0,
    "target_layer_ids": [
      0,
      1
    ],
    "vocab_size": 16
  },
  "draft_model": "z-lab/Kimi-K2.5-DFlash",
  "expected": {
    "hidden_states": [
      [
        [
          -2.1320247650146484,
          1.9744443893432617,
          0.5409025549888611,
          -1.0546302795410156,
          -0.6251920461654663,
          -0.6376045346260071,
          0.3307568430900574,
          -0.8908296823501587
        ],
        [
          0.19881214201450348,
          1.445501446723938,
          0.6554657816886902,
          -0.11594219505786896,
          -1.8108997344970703,
          1.7223080396652222,
          -1.0615400075912476,
          -2.2330474853515625
        ],
        [
          1.6229827404022217,
          2.3475818634033203,
          1.3037806749343872,
          -1.8809674978256226,
          -0.0653737485408783,
          -0.4314124882221222,
          -2.0858259201049805,
          -1.234265923500061
        ],
        [
          -0.6286089420318604,
          0.8249358534812927,
          -0.21894879639148712,
          0.7544960975646973,
          -0.4902836084365845,
          1.432723879814148,
          -1.3183759450912476,
          0.8877379894256592
        ]
      ]
    ]
  },
  "golden_reference": "golden_dflash.KimiDFlashDraftModel",
  "inputs": {
    "hidden_states": [
      [
        [
          -2.148594379425049,
          1.81840980052948,
          0.4297281801700592,
          -1.4389885663986206,
          -0.1954912543296814,
          -0.9836178421974182,
          0.22437384724617004,
          -0.7031846046447754
        ],
        [
          -0.015041041187942028,
          1.4768736362457275,
          0.6693404316902161,
          -0.25877511501312256,
          -2.191986322402954,
          1.9876891374588013,
          -1.1127761602401733,
          -2.3148751258850098
        ],
        [
          1.5030159950256348,
          2.053617477416992,
          1.202581763267517,
          -1.8995709419250488,
          -0.09943338483572006,
          -0.383157879114151,
          -2.3569960594177246,
          -1.078842043876648
        ],
        [
          -0.6105351448059082,
          0.6600825190544128,
          -0.34039777517318726,
          0.4626011550426483,
          -0.5718927383422852,
          1.530821681022644,
          -1.2152221202850342,
          1.0931158065795898
        ]
      ]
    ],
    "position_cos": [
      [
        [
          1.0,
          1.0,
          1.0,
          1.0
        ],
        [
          0.5403022766113281,
          0.9999499917030334,
          0.5403022766113281,
          0.9999499917030334
        ],
        [
          -0.416146844625473,
          0.9998000264167786,
          -0.416146844625473,
          0.9998000264167786
        ],
        [
          -0.9899924993515015,
          0.9995500445365906,
          -0.9899924993515015,
          0.9995500445365906
        ],
        [
          -0.6536436080932617,
          0.9992001056671143,
          -0.6536436080932617,
          0.9992001056671143
        ],
        [
          0.28366219997406006,
          0.9987502694129944,
          0.28366219997406006,
          0.9987502694129944
        ],
        [
          0.9601702690124512,
          0.998200535774231,
          0.9601702690124512,
          0.998200535774231
        ]
      ]
    ],
    "position_sin": [
      [
        [
          0.0,
          0.0,
          0.0,
          0.0
        ],
        [
          0.8414709568023682,
          0.009999833069741726,
          0.8414709568023682,
          0.009999833069741726
        ],
        [
          0.9092974066734314,
          0.019998665899038315,
          0.9092974066734314,
          0.019998665899038315
        ],
        [
          0.14112000167369843,
          0.029995499178767204,
          0.14112000167369843,
          0.029995499178767204
        ],
        [
          -0.756802499294281,
          0.03998933359980583,
          -0.756802499294281,
          0.03998933359980583
        ],
        [
          -0.9589242935180664,
          0.04997916519641876,
          -0.9589242935180664,
          0.04997916519641876
        ],
        [
          -0.279415488243103,
          0.059964004904031754,
          -0.279415488243103,
          0.059964004904031754
        ]
      ]
    ],
    "target_context": [
      [
        [
          -1.1340380907058716,
          0.873712420463562,
          -0.4422399401664734,
          0.08316953480243683,
          0.2367420345544815,
          -0.9293754696846008,
          1.4522606134414673,
          -1.6489421129226685
        ],
        [
          1.4619779586791992,
          0.9725735187530518,
          2.040184259414673,
          0.22295662760734558,
          -0.6111427545547485,
          -0.5032810568809509,
          -0.21789486706256866,
          0.17386719584465027
        ],
        [
          -0.34171777963638306,
          1.043018102645874,
          0.06652873754501343,
          -0.0677308589220047,
          -1.5552202463150024,
          2.041948080062866,
          0.33270397782325745,
          -0.2951030135154724
        ]
      ]
    ]
  },
  "mapping": "one DFlash drafter decoder layer stage",
  "schema_version": 1,
  "seed": 28028,
  "stage": "decoder_layer_0",
  "target_model": "moonshotai/Kimi-K2.5",
  "weights": {
    "down_proj_weight": [
      [
        -0.21491298079490662,
        -0.04935634136199951,
        0.22778603434562683,
        -0.1251712441444397,
        0.0319085419178009,
        -0.12127768993377686,
        0.19272151589393616,
        0.06118038296699524,
        0.04894879460334778,
        0.031953006982803345,
        0.1824798583984375,
        -0.2492845356464386,
        -0.02874225378036499,
        0.05256590247154236,
        -0.039942383766174316,
        -0.03945565223693848
      ],
      [
        0.09665578603744507,
        -0.06732803583145142,
        0.17502284049987793,
        0.036240071058273315,
        0.18088585138320923,
        -0.16552093625068665,
        -0.018088221549987793,
        0.21068570017814636,
        0.21973952651023865,
        -0.24723869562149048,
        -0.001065671443939209,
        0.17504626512527466,
        0.019326835870742798,
        -0.1407204568386078,
        0.24104472994804382,
        0.10477647185325623
      ],
      [
        -0.03232079744338989,
        -0.023448199033737183,
        0.23413774371147156,
        -0.004103541374206543,
        0.22673636674880981,
        -0.18048807978630066,
        0.05783611536026001,
        -0.14014646410942078,
        -0.020539939403533936,
        0.1564597487449646,
        0.19480690360069275,
        -0.14610624313354492,
        0.06971919536590576,
        0.09227341413497925,
        0.23728832602500916,
        -0.03051126003265381
      ],
      [
        0.1392819583415985,
        0.11466825008392334,
        0.19154945015907288,
        -0.03320556879043579,
        0.04246857762336731,
        0.14517250657081604,
        0.17489483952522278,
        0.24436336755752563,
        0.23504868149757385,
        0.11100912094116211,
        0.20945629477500916,
        0.08036401867866516,
        -0.11731851100921631,
        -0.021899372339248657,
        0.02808845043182373,
        0.22302314639091492
      ],
      [
        -0.24739956855773926,
        0.04474151134490967,
        -0.1838480532169342,
        -0.07569706439971924,
        -0.18138471245765686,
        0.2455996870994568,
        0.23385357856750488,
        0.03252527117729187,
        -0.002562999725341797,
        -0.180247962474823,
        -0.24036705493927002,
        -0.21437609195709229,
        -0.22300639748573303,
        0.04637402296066284,
        -0.1015792191028595,
        -0.15562620759010315
      ],
      [
        0.13242769241333008,
        -0.0018961429595947266,
        -0.13557559251785278,
        0.045627057552337646,
        0.0650952160358429,
        0.21495285630226135,
        0.13622018694877625,
        0.20712602138519287,
        -0.062180548906326294,
        -0.010875314474105835,
        -0.10923972725868225,
        0.08014783263206482,
        -0.02660498023033142,
        0.056664854288101196,
        0.06016576290130615,
        0.04251345992088318
      ],
      [
        -0.1706206500530243,
        -0.2106805443763733,
        -0.01709073781967163,
        -0.09103640913963318,
        0.19151973724365234,
        -0.07777467370033264,
        0.08257177472114563,
        0.08443272113800049,
        -0.2177688181400299,
        0.060056835412979126,
        0.22899463772773743,
        -0.12792786955833435,
        -0.24663078784942627,
        -0.18827417492866516,
        -0.05992904305458069,
        0.04168054461479187
      ],
      [
        -0.08349096775054932,
        0.21396231651306152,
        -0.023405015468597412,
        0.11592793464660645,
        0.025207877159118652,
        -0.06377345323562622,
        -0.17347368597984314,
        -0.21354418992996216,
        -0.13902318477630615,
        -0.21151769161224365,
        -0.24494749307632446,
        -0.15039196610450745,
        0.14394667744636536,
        -0.09633833169937134,
        -0.1239004135131836,
        -0.1344553828239441
      ]
    ],
    "gate_proj_weight": [
      [
        -0.28503352403640747,
        0.34556618332862854,
        0.18219643831253052,
        -0.14049313962459564,
        -0.3402634859085083,
        0.15331214666366577,
        -0.08787284791469574,
        -0.20270054042339325
      ],
      [
        0.13292500376701355,
        -0.09347260743379593,
        0.20919431746006012,
        0.23884724080562592,
        -0.2217429131269455,
        0.29831236600875854,
        -0.1578093022108078,
        -0.25604167580604553
      ],
      [
        -0.22723489999771118,
        -0.16650529205799103,
        -0.06737042963504791,
        -0.2026645988225937,
        -0.23235051333904266,
        -0.21376952528953552,
        0.058566123247146606,
        -0.2746078372001648
      ],
      [
        0.12572960555553436,
        0.24762660264968872,
        -0.06687022745609283,
        -0.1646488457918167,
        -0.0022946009412407875,
        -0.1506282389163971,
        -0.3282937705516815,
        0.036481596529483795
      ],
      [
        -0.3144736588001251,
        0.21061842143535614,
        -0.06163141876459122,
        -0.33312147855758667,
        0.03569547086954117,
        -0.13009560108184814,
        -0.23885048925876617,
        -0.15273435413837433
      ],
      [
        -0.1904161274433136,
        -0.04987851902842522,
        -0.11285400390625,
        -0.28056785464286804,
        -0.18527467548847198,
        -0.062086816877126694,
        -0.013361478224396706,
        -0.1378183811903
      ],
      [
        -0.3438328504562378,
        -0.0240048635751009,
        0.02223469689488411,
        0.010860062204301357,
        -0.13387908041477203,
        -0.06458818912506104,
        0.25262221693992615,
        0.22414721548557281
      ],
      [
        -0.14078931510448456,
        -0.19230085611343384,
        -0.19016551971435547,
        0.30992114543914795,
        0.21705390512943268,
        0.039666421711444855,
        -0.015737632289528847,
        0.1792151778936386
      ],
      [
        -0.33544132113456726,
        0.1611374318599701,
        0.19780810177326202,
        -0.20251818001270294,
        0.20528161525726318,
        0.11115872859954834,
        -0.08672598749399185,
        0.2946970462799072
      ],
      [
        0.05193246155977249,
        0.2646926939487457,
        -0.03915926814079285,
        0.2249893993139267,
        0.21224477887153625,
        -0.20274117588996887,
        -0.15324817597866058,
        0.07421039789915085
      ],
      [
        -0.03988739848136902,
        0.19532059133052826,
        -0.24716058373451233,
        -0.17732560634613037,
        0.08623716980218887,
        -0.308880478143692,
        -0.01273239403963089,
        -0.1457269787788391
      ],
      [
        0.03764965385198593,
        -0.2952509820461273,
        0.10952545702457428,
        -0.09833740442991257,
        -0.05701553821563721,
        -0.14923802018165588,
        -0.29020482301712036,
        -0.22459949553012848
      ],
      [
        0.036424487829208374,
        -0.27773088216781616,
        -0.27072402834892273,
        0.27060604095458984,
        -0.24408534169197083,
        0.3067207634449005,
        -0.14067770540714264,
        0.2904895544052124
      ],
      [
        -0.3419726490974426,
        0.33528760075569153,
        0.13972978293895721,
        0.20491307973861694,
        -0.1675368845462799,
        -0.19351589679718018,
        -0.006569176446646452,
        -0.25049135088920593
      ],
      [
        0.2399272918701172,
        0.14932113885879517,
        0.1160728856921196,
        -0.13531161844730377,
        0.06904353201389313,
        -0.14488089084625244,
        0.17388364672660828,
        0.2701936662197113
      ],
      [
        0.01967448554933071,
        -0.32111746072769165,
        0.3271736800670624,
        -0.2133701890707016,
        0.3433140516281128,
        0.16399633884429932,
        0.32659319043159485,
        0.01396278664469719
      ]
    ],
    "input_layernorm_weight": [
      1.0,
      1.0,
      1.0,
      1.0,
      1.0,
      1.0,
      1.0,
      1.0
    ],
    "k_norm_weight": [
      1.0,
      1.0,
      1.0,
      1.0
    ],
    "k_proj_weight": [
      [
        0.26264554262161255,
        -0.21308426558971405,
        -0.19748832285404205,
        0.21999293565750122,
        0.30879637598991394,
        0.1234249398112297,
        0.1441960483789444,
        0.31727835536003113
      ],
      [
        0.21329368650913239,
        0.25530216097831726,
        0.05861691012978554,
        -0.18772223591804504,
        0.3223743140697479,
        -0.1495482623577118,
        -0.2888992726802826,
        -0.16129657626152039
      ],
      [
        0.001812483067624271,
        0.25501343607902527,
        0.306121826171875,
        0.12455594539642334,
        0.15603753924369812,
        0.13383035361766815,
        0.1578652262687683,
        -0.3231256306171417
      ],
      [
        0.18155740201473236,
        0.10551657527685165,
        0.0689125806093216,
        0.09493956714868546,
        -0.052721407264471054,
        -0.29481902718544006,
        -0.1695007085800171,
        -0.3244386911392212
      ]
    ],
    "o_proj_weight": [
      [
        0.33004483580589294,
        -0.2335749715566635,
        -0.06027977168560028,
        0.31232479214668274,
        0.16459642350673676,
        -0.2505488097667694,
        -0.21373948454856873,
        -0.00239617470651865
      ],
      [
        -0.12423466145992279,
        0.2353343367576599,
        0.29428964853286743,
        -0.11914189159870148,
        -0.06569623202085495,
        -0.30983883142471313,
        -0.14732228219509125,
        -0.27439385652542114
      ],
      [
        0.1988685578107834,
        -0.08315522223711014,
        0.07330559194087982,
        -0.27741938829421997,
        0.30208805203437805,
        -0.26731786131858826,
        -0.010157348588109016,
        -0.10638386756181717
      ],
      [
        -0.21045657992362976,
        -0.11324647068977356,
        0.15559925138950348,
        0.2548450827598572,
        0.3360280990600586,
        0.21500906348228455,
        0.2972118854522705,
        0.3407842814922333
      ],
      [
        -0.31619712710380554,
        0.23438122868537903,
        -0.11948985606431961,
        -0.32413750886917114,
        0.056923363357782364,
        0.04381295666098595,
        0.25922098755836487,
        0.18496966361999512
      ],
      [
        -0.277917742729187,
        -0.27801814675331116,
        -0.009830036200582981,
        -0.2914700210094452,
        -0.3009929656982422,
        0.26684632897377014,
        0.1254786252975464,
        -0.2236129641532898
      ],
      [
        0.05135108530521393,
        -0.31934791803359985,
        0.3043363094329834,
        0.1352492719888687,
        -0.29845017194747925,
        0.28054994344711304,
        -0.1832178682088852,
        -0.025222232565283775
      ],
      [
        0.046783167868852615,
        -0.1498676985502243,
        -0.16307015717029572,
        -0.05692294239997864,
        -0.19900839030742645,
        -0.07092496752738953,
        -0.28156155347824097,
        -0.07377342134714127
      ]
    ],
    "post_attention_layernorm_weight": [
      1.0,
      1.0,
      1.0,
      1.0,
      1.0,
      1.0,
      1.0,
      1.0
    ],
    "q_norm_weight": [
      1.0,
      1.0,
      1.0,
      1.0
    ],
    "q_proj_weight": [
      [
        0.29473257064819336,
        0.23821014165878296,
        -0.03287416324019432,
        -0.20681104063987732,
        0.31292277574539185,
        0.012560814619064331,
        0.15997855365276337,
        0.13560941815376282
      ],
      [
        -0.1813736855983734,
        -0.014114431105554104,
        -0.26443690061569214,
        -0.11587542295455933,
        0.2894744277000427,
        -0.3042783737182617,
        0.3433876931667328,
        -0.17718656361103058
      ],
      [
        0.13923527300357819,
        -0.21629129350185394,
        -0.017107153311371803,
        0.12505808472633362,
        -0.3253951668739319,
        -0.34810876846313477,
        0.003833930240944028,
        0.06459080427885056
      ],
      [
        0.15350201725959778,
        -0.00823654793202877,
        0.14626283943653107,
        0.2351275235414505,
        0.29365840554237366,
        0.0915563553571701,
        0.2277856320142746,
        -0.33283984661102295
      ],
      [
        -0.13770976662635803,
        0.2889615595340729,
        -0.32101061940193176,
        0.07478705048561096,
        0.3088884651660919,
        -0.24538931250572205,
        -0.034308165311813354,
        0.03454292565584183
      ],
      [
        0.2891407012939453,
        0.17222891747951508,
        0.3322564661502838,
        0.27607667446136475,
        0.2703703045845032,
        0.206026092171669,
        -0.2601088583469391,
        -0.2652745246887207
      ],
      [
        -0.30050089955329895,
        0.13734064996242523,
        -0.3392108082771301,
        0.3337956964969635,
        0.27088984847068787,
        -0.049539487808942795,
        0.28604382276535034,
        -0.08708963543176651
      ],
      [
        -0.06682036817073822,
        0.11787592619657516,
        0.11829730868339539,
        -0.3027375340461731,
        0.03393600881099701,
        -0.18000063300132751,
        -0.18586359918117523,
        -0.31169524788856506
      ]
    ],
    "up_proj_weight": [
      [
        -0.21608853340148926,
        0.2382393181324005,
        -0.09841537475585938,
        0.20499977469444275,
        0.3378065526485443,
        -0.20765246450901031,
        0.2757461369037628,
        0.19391962885856628
      ],
      [
        -0.21806766092777252,
        0.07253207266330719,
        -0.18936456739902496,
        0.22655941545963287,
        0.11818751692771912,
        0.09045552462339401,
        -0.33691561222076416,
        -0.3271920382976532
      ],
      [
        -0.1917981207370758,
        0.2636915445327759,
        -0.14352746307849884,
        0.3287343978881836,
        -0.27910691499710083,
        -0.054334916174411774,
        0.2833414077758789,
        -0.2976931035518646
      ],
      [
        0.3058440387248993,
        -0.2760556638240814,
        -0.07095135003328323,
        0.31092676520347595,
        0.1432005763053894,
        -0.2953304946422577,
        0.3266010284423828,
        -0.3531627953052521
      ],
      [
        0.05744248628616333,
        0.0931726023554802,
        0.16688747704029083,
        -0.09795525670051575,
        -0.14406690001487732,
        -0.2227001041173935,
        0.11727065593004227,
        -0.25766968727111816
      ],
      [
        -0.21222825348377228,
        0.018766937777400017,
        0.16380110383033752,
        0.32678544521331787,
        0.05341468006372452,
        -0.2574526369571686,
        -0.3525277078151703,
        -0.12289401143789291
      ],
      [
        0.12767477333545685,
        0.14696462452411652,
        -0.23306377232074738,
        -0.10150360316038132,
        0.2713988423347473,
        0.08056765794754028,
        0.0021463283337652683,
        -0.021429184824228287
      ],
      [
        0.22105397284030914,
        0.1093619242310524,
        0.053260255604982376,
        0.1875908523797989,
        -0.1175769791007042,
        0.32406213879585266,
        0.27688467502593994,
        0.14519943296909332
      ],
      [
        -0.15138739347457886,
        0.06774667650461197,
        -0.2912820875644684,
        0.13094262778759003,
        0.08930672705173492,
        -0.1591774821281433,
        -0.3456047475337982,
        -0.029141215607523918
      ],
      [
        0.13497072458267212,
        0.18394410610198975,
        0.12405996024608612,
        0.1541300117969513,
        0.30956539511680603,
        -0.1825781613588333,
        0.3254787027835846,
        0.14228218793869019
      ],
      [
        0.20770426094532013,
        0.11256732046604156,
        0.010370864532887936,
        0.17675477266311646,
        0.18690693378448486,
        0.15358151495456696,
        0.030171368271112442,
        -0.33019328117370605
      ],
      [
        0.13974326848983765,
        -0.0662265196442604,
        -0.124368816614151,
        0.21226859092712402,
        -0.024671627208590508,
        0.2595597505569458,
        -0.07408551871776581,
        -0.1283118575811386
      ],
      [
        0.09033026546239853,
        -0.24798458814620972,
        -0.06514161825180054,
        -0.21104516088962555,
        -0.27889716625213623,
        0.2965671420097351,
        0.09438183903694153,
        0.25067010521888733
      ],
      [
        -0.13993579149246216,
        0.11912355571985245,
        0.257117360830307,
        -0.1884862184524536,
        0.12162206321954727,
        -0.27825409173965454,
        0.32118508219718933,
        -0.13346508145332336
      ],
      [
        -0.30594000220298767,
        0.306680828332901,
        0.15370365977287292,
        -0.0052426462061703205,
        -0.17931152880191803,
        -0.16649745404720306,
        0.27854594588279724,
        0.29678112268447876
      ],
      [
        -0.23614980280399323,
        -0.28048378229141235,
        -0.240119069814682,
        0.17046460509300232,
        -0.1791047602891922,
        -0.25015655159950256,
        -0.22199992835521698,
        0.007074221968650818
      ]
    ],
    "v_proj_weight": [
      [
        -0.09154792875051498,
        -0.1959248036146164,
        -0.2288854569196701,
        -0.21042631566524506,
        -0.028217103332281113,
        0.06639675050973892,
        -0.2791398763656616,
        0.14881660044193268
      ],
      [
        -0.08071770519018173,
        -0.1130075454711914,
        -0.3190164566040039,
        0.2796846330165863,
        -0.07569696009159088,
        0.06637226790189743,
        0.28841978311538696,
        -0.1854224056005478
      ],
      [
        0.23431430757045746,
        0.08993951976299286,
        0.2673279643058777,
        -0.20453818142414093,
        -0.07507900148630142,
        0.3082200586795807,
        -0.33305099606513977,
        0.0668187290430069
      ],
      [
        -0.33162808418273926,
        0.006590460427105427,
        0.32367581129074097,
        -0.2522129714488983,
        0.3021017014980316,
        0.17063762247562408,
        0.11402526497840881,
        -0.24806290864944458
      ]
    ]
  }
}
