{
  "approach": "dflash_block_diffusion",
  "config": {
    "block_size": 4,
    "head_dim": 4,
    "hidden_size": 8,
    "intermediate_size": 16,
    "mask_token_id": 15,
    "max_position_embeddings": 1024,
    "num_attention_heads": 2,
    "num_hidden_layers": 2,
    "num_key_value_heads": 1,
    "rms_norm_eps": 1e-05,
    "rope_theta": 10000.0,
    "target_layer_ids": [
      0,
      1
    ],
    "vocab_size": 16
  },
  "draft_model": "z-lab/Kimi-K2.5-DFlash",
  "expected": {
    "draft_logits": [
      [
        [
          4.463228225708008,
          3.221565008163452,
          -1.0274741649627686,
          1.060745358467102,
          -2.0920166969299316,
          3.1960906982421875,
          -1.370198369026184,
          2.0063560009002686,
          1.4750685691833496,
          -2.8018133640289307,
          1.3361501693725586,
          2.4121506214141846,
          -2.6779298782348633,
          -0.05911142751574516,
          0.009787268936634064,
          -5.03950834274292
        ],
        [
          1.3313961029052734,
          0.040628623217344284,
          0.11173611879348755,
          -3.222088575363159,
          1.3513668775558472,
          -0.5044132471084595,
          1.252221941947937,
          0.7420265078544617,
          0.8614615797996521,
          1.3275933265686035,
          1.279024600982666,
          -1.1194100379943848,
          -3.6599843502044678,
          0.28091204166412354,
          -3.5338973999023438,
          -2.238529920578003
        ],
        [
          2.965333938598633,
          -0.40238603949546814,
          0.814845621585846,
          -2.351492166519165,
          1.7541741132736206,
          -3.6241376399993896,
          -0.5870940089225769,
          1.800488829612732,
          0.13274236023426056,
          0.28972041606903076,
          6.609891414642334,
          -1.768001675605774,
          -0.28436505794525146,
          1.2796107530593872,
          -0.3784857988357544,
          -0.7617385387420654
        ]
      ]
    ],
    "draft_token_ids": [
      [
        0,
        4,
        10
      ]
    ],
    "final_hidden": [
      [
        [
          -1.786041259765625,
          1.4857652187347412,
          0.4194217324256897,
          -0.8850741386413574,
          -0.6252462267875671,
          -0.6171317100524902,
          0.26280835270881653,
          -0.895756185054779
        ],
        [
          0.10320928692817688,
          0.7005045413970947,
          0.3642732501029968,
          -0.07550205290317535,
          -1.4181369543075562,
          1.3565698862075806,
          -0.8565257787704468,
          -1.6658846139907837
        ],
        [
          1.012424111366272,
          1.3637276887893677,
          0.881968080997467,
          -1.3430700302124023,
          -0.020597299560904503,
          -0.12695440649986267,
          -1.38672935962677,
          -0.7706798315048218
        ],
        [
          -0.7134121656417847,
          0.5219036340713501,
          -0.15459105372428894,
          0.6325491666793823,
          -0.6348633766174316,
          1.7021148204803467,
          -1.59832763671875,
          0.9693556427955627
        ]
      ]
    ],
    "host_packet": {
      "anchor_position": 2,
      "positions": [
        3,
        4,
        5
      ],
      "token_ids": [
        0,
        4,
        10
      ],
      "type": "DRAFT_BLOCK_PROPOSAL"
    }
  },
  "golden_reference": "golden_dflash.KimiDFlashDraftModel",
  "inputs": {
    "anchor_position": 2,
    "hidden_states": [
      [
        [
          -2.1377573013305664,
          1.7783493995666504,
          0.5020163059234619,
          -1.059367299079895,
          -0.7483727931976318,
          -0.7386603355407715,
          0.3145618438720703,
          -1.072152853012085
        ],
        [
          0.14125144481658936,
          0.9587051868438721,
          0.49854159355163574,
          -0.1033315360546112,
          -1.9408515691757202,
          1.8565913438796997,
          -1.1722346544265747,
          -2.279917001724243
        ],
        [
          1.5883879661560059,
          2.1395466327667236,
          1.3837159872055054,
          -2.1071369647979736,
          -0.03231501579284668,
          -0.19917823374271393,
          -2.1756339073181152,
          -1.2091163396835327
        ],
        [
          -0.6586055755615234,
          0.4818093478679657,
          -0.14271488785743713,
          0.5839547514915466,
          -0.586091160774231,
          1.5713529586791992,
          -1.4755390882492065,
          0.8948866724967957
        ]
      ]
    ]
  },
  "mapping": "DFlash final norm, drafter lmhead/sampling, and host packet construction",
  "schema_version": 1,
  "seed": 28028,
  "stage": "post_decoder_fused",
  "target_model": "moonshotai/Kimi-K2.5",
  "weights": {
    "final_norm_weight": [
      1.0,
      1.0,
      1.0,
      1.0,
      1.0,
      1.0,
      1.0,
      1.0
    ],
    "target_lm_head_weight": [
      [
        -2.0044920444488525,
        1.1928642988204956,
        -0.11927658319473267,
        -1.164164662361145,
        -0.7610944509506226,
        1.1810649633407593,
        0.10386074334383011,
        -0.7188266515731812
      ],
      [
        -0.2727143168449402,
        -0.19890587031841278,
        -0.6442089080810547,
        -0.661577582359314,
        -0.12374898791313171,
        1.098501205444336,
        0.48279860615730286,
        -1.3936177492141724
      ],
      [
        1.2168586254119873,
        0.31489431858062744,
        -0.014341107569634914,
        -0.16581407189369202,
        1.8208609819412231,
        2.029587507247925,
        0.7537384629249573,
        0.5440928936004639
      ],
      [
        -0.3700137436389923,
        -1.95345938205719,
        -0.3438981771469116,
        -0.8150885701179504,
        -2.355693817138672,
        -0.42227768898010254,
        0.9767985343933105,
        -0.3600965142250061
      ],
      [
        -1.3880435228347778,
        0.7848917841911316,
        0.9373446106910706,
        -0.7643663287162781,
        0.9023868441581726,
        -0.160505011677742,
        -0.48359692096710205,
        1.0892157554626465
      ],
      [
        0.3193552494049072,
        -0.07085046172142029,
        -0.8298289179801941,
        0.035389602184295654,
        0.649910032749176,
        0.9056131839752197,
        1.3213447332382202,
        -2.6067936420440674
      ],
      [
        0.10659286379814148,
        0.24826107919216156,
        3.1975793838500977,
        0.8702460527420044,
        0.3463374972343445,
        -0.5084399580955505,
        0.2235725373029709,
        0.7694476246833801
      ],
      [
        -0.22588573396205902,
        0.39694416522979736,
        0.2191486805677414,
        1.0359838008880615,
        -0.14274348318576813,
        -0.07406488806009293,
        -0.8609402179718018,
        -0.5466310381889343
      ],
      [
        1.9428812265396118,
        -0.20296642184257507,
        0.9438254237174988,
        -0.5305554270744324,
        -0.5382238626480103,
        1.7692139148712158,
        1.1859173774719238,
        0.6691417694091797
      ],
      [
        1.0965715646743774,
        -0.3756215572357178,
        -0.11913537234067917,
        1.5778422355651855,
        0.922395646572113,
        -1.7854390144348145,
        -2.193044900894165,
        0.38272783160209656
      ],
      [
        2.4227349758148193,
        0.8453038930892944,
        -0.8940198421478271,
        1.2184698581695557,
        0.0005702215130440891,
        2.00665020942688,
        -1.201844334602356,
        1.7042816877365112
      ],
      [
        -0.8552186489105225,
        -0.9025452733039856,
        0.20036490261554718,
        -1.3256874084472656,
        -1.0211917161941528,
        0.6830158829689026,
        1.1962125301361084,
        -0.9661009907722473
      ],
      [
        1.4887264966964722,
        -0.7126142978668213,
        -1.1707425117492676,
        1.6949377059936523,
        0.3954695463180542,
        0.026071174070239067,
        0.29837116599082947,
        0.5984353423118591
      ],
      [
        1.9667023420333862,
        0.6432895660400391,
        -1.2447922229766846,
        0.5361757278442383,
        0.7917856574058533,
        1.3020848035812378,
        0.19078794121742249,
        0.41952937841415405
      ],
      [
        -0.5344873666763306,
        0.09957356750965118,
        -0.8546177744865417,
        0.7940552234649658,
        -0.8721234798431396,
        -0.134750097990036,
        1.0352030992507935,
        -0.11954750120639801
      ],
      [
        -0.8130534887313843,
        -0.2763775885105133,
        -0.7698574066162109,
        -1.5882742404937744,
        0.6949820518493652,
        -0.06591164320707321,
        0.8634834885597229,
        1.6729129552841187
      ]
    ]
  }
}
