{
  "approach": "dflash_block_diffusion",
  "config": {
    "block_size": 4,
    "head_dim": 4,
    "hidden_size": 8,
    "intermediate_size": 16,
    "mask_token_id": 15,
    "max_position_embeddings": 1024,
    "num_attention_heads": 2,
    "num_hidden_layers": 2,
    "num_key_value_heads": 1,
    "rms_norm_eps": 1e-05,
    "rope_theta": 10000.0,
    "target_layer_ids": [
      0,
      1
    ],
    "vocab_size": 16
  },
  "draft_model": "z-lab/Kimi-K2.5-DFlash",
  "expected": {
    "base_logits": [
      [
        0.3643617630004883,
        0.07093554735183716,
        -1.436285138130188,
        4.023361682891846,
        -1.5198012590408325,
        0.02971041202545166,
        0.7537342309951782,
        -1.0876672267913818,
        2.5981249809265137,
        -3.38993239402771,
        -1.36529541015625,
        2.348268508911133,
        -0.14455734193325043,
        -0.7835091948509216,
        2.050642967224121,
        0.3210868835449219
      ]
    ],
    "base_token_id": 3,
    "decoder_input": [
      [
        [
          -2.148594379425049,
          1.81840980052948,
          0.4297281801700592,
          -1.4389885663986206,
          -0.1954912543296814,
          -0.9836178421974182,
          0.22437384724617004,
          -0.7031846046447754
        ],
        [
          -0.015041041187942028,
          1.4768736362457275,
          0.6693404316902161,
          -0.25877511501312256,
          -2.191986322402954,
          1.9876891374588013,
          -1.1127761602401733,
          -2.3148751258850098
        ],
        [
          1.5030159950256348,
          2.053617477416992,
          1.202581763267517,
          -1.8995709419250488,
          -0.09943338483572006,
          -0.383157879114151,
          -2.3569960594177246,
          -1.078842043876648
        ],
        [
          -0.6105351448059082,
          0.6600825190544128,
          -0.34039777517318726,
          0.4626011550426483,
          -0.5718927383422852,
          1.530821681022644,
          -1.2152221202850342,
          1.0931158065795898
        ]
      ]
    ],
    "position_cos": [
      [
        [
          1.0,
          1.0,
          1.0,
          1.0
        ],
        [
          0.5403022766113281,
          0.9999499917030334,
          0.5403022766113281,
          0.9999499917030334
        ],
        [
          -0.416146844625473,
          0.9998000264167786,
          -0.416146844625473,
          0.9998000264167786
        ],
        [
          -0.9899924993515015,
          0.9995500445365906,
          -0.9899924993515015,
          0.9995500445365906
        ],
        [
          -0.6536436080932617,
          0.9992001056671143,
          -0.6536436080932617,
          0.9992001056671143
        ],
        [
          0.28366219997406006,
          0.9987502694129944,
          0.28366219997406006,
          0.9987502694129944
        ],
        [
          0.9601702690124512,
          0.998200535774231,
          0.9601702690124512,
          0.998200535774231
        ]
      ]
    ],
    "position_sin": [
      [
        [
          0.0,
          0.0,
          0.0,
          0.0
        ],
        [
          0.8414709568023682,
          0.009999833069741726,
          0.8414709568023682,
          0.009999833069741726
        ],
        [
          0.9092974066734314,
          0.019998665899038315,
          0.9092974066734314,
          0.019998665899038315
        ],
        [
          0.14112000167369843,
          0.029995499178767204,
          0.14112000167369843,
          0.029995499178767204
        ],
        [
          -0.756802499294281,
          0.03998933359980583,
          -0.756802499294281,
          0.03998933359980583
        ],
        [
          -0.9589242935180664,
          0.04997916519641876,
          -0.9589242935180664,
          0.04997916519641876
        ],
        [
          -0.279415488243103,
          0.059964004904031754,
          -0.279415488243103,
          0.059964004904031754
        ]
      ]
    ],
    "target_context": [
      [
        [
          -1.1340380907058716,
          0.873712420463562,
          -0.4422399401664734,
          0.08316953480243683,
          0.2367420345544815,
          -0.9293754696846008,
          1.4522606134414673,
          -1.6489421129226685
        ],
        [
          1.4619779586791992,
          0.9725735187530518,
          2.040184259414673,
          0.22295662760734558,
          -0.6111427545547485,
          -0.5032810568809509,
          -0.21789486706256866,
          0.17386719584465027
        ],
        [
          -0.34171777963638306,
          1.043018102645874,
          0.06652873754501343,
          -0.0677308589220047,
          -1.5552202463150024,
          2.041948080062866,
          0.33270397782325745,
          -0.2951030135154724
        ]
      ]
    ]
  },
  "golden_reference": "golden_dflash.KimiDFlashDraftModel",
  "inputs": {
    "base_hidden": [
      [
        1.4782899618148804,
        0.22048123180866241,
        1.0074262619018555,
        -0.12233645468950272,
        -0.9300307631492615,
        -1.4406867027282715,
        1.1706582307815552,
        1.0869534015655518
      ]
    ],
    "noise_embedding": [
      [
        [
          -2.148594379425049,
          1.81840980052948,
          0.4297281801700592,
          -1.4389885663986206,
          -0.1954912543296814,
          -0.9836178421974182,
          0.22437384724617004,
          -0.7031846046447754
        ],
        [
          -0.015041041187942028,
          1.4768736362457275,
          0.6693404316902161,
          -0.25877511501312256,
          -2.191986322402954,
          1.9876891374588013,
          -1.1127761602401733,
          -2.3148751258850098
        ],
        [
          1.5030159950256348,
          2.053617477416992,
          1.202581763267517,
          -1.8995709419250488,
          -0.09943338483572006,
          -0.383157879114151,
          -2.3569960594177246,
          -1.078842043876648
        ],
        [
          -0.6105351448059082,
          0.6600825190544128,
          -0.34039777517318726,
          0.4626011550426483,
          -0.5718927383422852,
          1.530821681022644,
          -1.2152221202850342,
          1.0931158065795898
        ]
      ]
    ],
    "position_ids": [
      [
        0,
        1,
        2,
        3,
        4,
        5,
        6
      ]
    ],
    "target_hidden": [
      [
        [
          0.02367013320326805,
          -1.4504213333129883,
          0.715307354927063,
          -2.436353921890259,
          -0.46455761790275574,
          0.3964216113090515,
          -1.4887490272521973,
          -2.1829137802124023,
          1.5696868896484375,
          -0.9371894598007202,
          -1.7050282955169678,
          -0.4316227436065674,
          1.79880952835083,
          -0.6367090344429016,
          1.1738265752792358,
          -2.3185133934020996
        ],
        [
          -0.37897366285324097,
          -0.8139442801475525,
          -1.542126178741455,
          -0.24507442116737366,
          0.58721524477005,
          1.723527193069458,
          -0.5602468848228455,
          0.19149743020534515,
          0.7819598317146301,
          1.1593209505081177,
          2.2079570293426514,
          -0.057645197957754135,
          -0.9241023659706116,
          0.4727126955986023,
          -0.44916850328445435,
          -2.2156546115875244
        ],
        [
          0.7487203478813171,
          -1.7845954895019531,
          1.1296864748001099,
          0.6305713057518005,
          -1.215099811553955,
          -1.3504018783569336,
          -1.6466140747070312,
          0.6104182600975037,
          -0.44997286796569824,
          -2.2810757160186768,
          1.4582176208496094,
          2.0579216480255127,
          0.22756701707839966,
          0.4688398838043213,
          0.9830009937286377,
          0.5221397280693054
        ]
      ]
    ]
  },
  "mapping": "base-model norm/lmhead/sampling plus DFlash target-hidden projection, noise block, and RoPE prep",
  "schema_version": 1,
  "seed": 28028,
  "stage": "pre_decoder_fused",
  "target_model": "moonshotai/Kimi-K2.5",
  "weights": {
    "base_norm_weight": [
      0.183391273021698,
      0.4839108884334564,
      0.21984761953353882,
      0.9612277746200562,
      1.4356188774108887,
      0.1930440068244934,
      1.1417449712753296,
      0.17874902486801147
    ],
    "fc_weight": [
      [
        0.005820631980895996,
        -0.1715874969959259,
        -0.09157982468605042,
        0.06490600109100342,
        0.2142932415008545,
        0.07133275270462036,
        -0.0023119747638702393,
        -0.18692541122436523,
        0.1009465754032135,
        0.1456381380558014,
        0.2394205927848816,
        0.06409633159637451,
        -0.23136794567108154,
        -0.2159346640110016,
        0.011032938957214355,
        0.15011489391326904
      ],
      [
        0.2020818293094635,
        -0.022920042276382446,
        -0.05518615245819092,
        -0.19211259484291077,
        0.1225532591342926,
        -0.15509212017059326,
        -0.23676618933677673,
        0.04904690384864807,
        0.1738407015800476,
        -0.18878453969955444,
        0.2340235710144043,
        -0.24982088804244995,
        0.029781341552734375,
        0.18811815977096558,
        -0.20287740230560303,
        -0.02685260772705078
      ],
      [
        0.08889037370681763,
        -0.18061816692352295,
        -0.1386982500553131,
        -0.10991325974464417,
        -0.14843043684959412,
        -0.0847192108631134,
        -0.05381008982658386,
        -0.030153870582580566,
        0.09728246927261353,
        0.16603964567184448,
        0.19451174139976501,
        -0.059274882078170776,
        -0.24075919389724731,
        0.1502368450164795,
        -0.20467674732208252,
        -0.0887625515460968
      ],
      [
        -0.13248977065086365,
        0.04173940420150757,
        -0.21086257696151733,
        -0.16126617789268494,
        0.10873609781265259,
        -0.17766132950782776,
        -0.06195133924484253,
        0.129929780960083,
        0.1509527564048767,
        -0.1507064700126648,
        -0.13512974977493286,
        0.06268399953842163,
        -0.12776368856430054,
        0.21790355443954468,
        -0.07936510443687439,
        -0.02704140543937683
      ],
      [
        -0.2323903739452362,
        -0.05202248692512512,
        0.061368972063064575,
        0.026712805032730103,
        0.18390139937400818,
        -0.06010010838508606,
        0.05231902003288269,
        -0.23069489002227783,
        0.03702393174171448,
        0.20831957459449768,
        0.056703269481658936,
        -0.1439172923564911,
        0.05364897847175598,
        -0.22932374477386475,
        0.22251111268997192,
        0.24110573530197144
      ],
      [
        0.0761667788028717,
        0.0353187620639801,
        -0.12732651829719543,
        0.07433277368545532,
        -0.24117955565452576,
        -0.22378015518188477,
        -0.19519618153572083,
        -0.10121655464172363,
        -0.20313268899917603,
        -0.03388437628746033,
        0.21758198738098145,
        -0.17425325512886047,
        0.15207314491271973,
        0.2133045792579651,
        -0.005526840686798096,
        0.13124263286590576
      ],
      [
        -0.2193143665790558,
        -0.24109572172164917,
        0.08677685260772705,
        -0.20172375440597534,
        0.011126607656478882,
        0.1675490140914917,
        0.10357782244682312,
        0.20910319685935974,
        0.0027479827404022217,
        -0.12800738215446472,
        -0.1329527199268341,
        -0.09436717629432678,
        0.061251431703567505,
        0.16867399215698242,
        0.19977399706840515,
        0.055935829877853394
      ],
      [
        -0.1689368188381195,
        0.023231804370880127,
        0.24629724025726318,
        -0.0034289956092834473,
        -0.07920753955841064,
        0.013252198696136475,
        0.1603885293006897,
        0.23121896386146545,
        -0.04902300238609314,
        -0.0044708251953125,
        0.10282301902770996,
        -0.06220412254333496,
        -0.2160761058330536,
        -0.18765562772750854,
        -0.09433799982070923,
        -0.08324936032295227
      ]
    ],
    "hidden_norm_weight": [
      1.0,
      1.0,
      1.0,
      1.0,
      1.0,
      1.0,
      1.0,
      1.0
    ],
    "target_lm_head_weight": [
      [
        -2.0044920444488525,
        1.1928642988204956,
        -0.11927658319473267,
        -1.164164662361145,
        -0.7610944509506226,
        1.1810649633407593,
        0.10386074334383011,
        -0.7188266515731812
      ],
      [
        -0.2727143168449402,
        -0.19890587031841278,
        -0.6442089080810547,
        -0.661577582359314,
        -0.12374898791313171,
        1.098501205444336,
        0.48279860615730286,
        -1.3936177492141724
      ],
      [
        1.2168586254119873,
        0.31489431858062744,
        -0.014341107569634914,
        -0.16581407189369202,
        1.8208609819412231,
        2.029587507247925,
        0.7537384629249573,
        0.5440928936004639
      ],
      [
        -0.3700137436389923,
        -1.95345938205719,
        -0.3438981771469116,
        -0.8150885701179504,
        -2.355693817138672,
        -0.42227768898010254,
        0.9767985343933105,
        -0.3600965142250061
      ],
      [
        -1.3880435228347778,
        0.7848917841911316,
        0.9373446106910706,
        -0.7643663287162781,
        0.9023868441581726,
        -0.160505011677742,
        -0.48359692096710205,
        1.0892157554626465
      ],
      [
        0.3193552494049072,
        -0.07085046172142029,
        -0.8298289179801941,
        0.035389602184295654,
        0.649910032749176,
        0.9056131839752197,
        1.3213447332382202,
        -2.6067936420440674
      ],
      [
        0.10659286379814148,
        0.24826107919216156,
        3.1975793838500977,
        0.8702460527420044,
        0.3463374972343445,
        -0.5084399580955505,
        0.2235725373029709,
        0.7694476246833801
      ],
      [
        -0.22588573396205902,
        0.39694416522979736,
        0.2191486805677414,
        1.0359838008880615,
        -0.14274348318576813,
        -0.07406488806009293,
        -0.8609402179718018,
        -0.5466310381889343
      ],
      [
        1.9428812265396118,
        -0.20296642184257507,
        0.9438254237174988,
        -0.5305554270744324,
        -0.5382238626480103,
        1.7692139148712158,
        1.1859173774719238,
        0.6691417694091797
      ],
      [
        1.0965715646743774,
        -0.3756215572357178,
        -0.11913537234067917,
        1.5778422355651855,
        0.922395646572113,
        -1.7854390144348145,
        -2.193044900894165,
        0.38272783160209656
      ],
      [
        2.4227349758148193,
        0.8453038930892944,
        -0.8940198421478271,
        1.2184698581695557,
        0.0005702215130440891,
        2.00665020942688,
        -1.201844334602356,
        1.7042816877365112
      ],
      [
        -0.8552186489105225,
        -0.9025452733039856,
        0.20036490261554718,
        -1.3256874084472656,
        -1.0211917161941528,
        0.6830158829689026,
        1.1962125301361084,
        -0.9661009907722473
      ],
      [
        1.4887264966964722,
        -0.7126142978668213,
        -1.1707425117492676,
        1.6949377059936523,
        0.3954695463180542,
        0.026071174070239067,
        0.29837116599082947,
        0.5984353423118591
      ],
      [
        1.9667023420333862,
        0.6432895660400391,
        -1.2447922229766846,
        0.5361757278442383,
        0.7917856574058533,
        1.3020848035812378,
        0.19078794121742249,
        0.41952937841415405
      ],
      [
        -0.5344873666763306,
        0.09957356750965118,
        -0.8546177744865417,
        0.7940552234649658,
        -0.8721234798431396,
        -0.134750097990036,
        1.0352030992507935,
        -0.11954750120639801
      ],
      [
        -0.8130534887313843,
        -0.2763775885105133,
        -0.7698574066162109,
        -1.5882742404937744,
        0.6949820518493652,
        -0.06591164320707321,
        0.8634834885597229,
        1.6729129552841187
      ]
    ]
  }
}
